<?xml version="1.0"?>
<opencv_storage>
<stage9>
  <maxWeakCount>12</maxWeakCount>
  <stageThreshold>-1.2993066310882568e+00</stageThreshold>
  <weakClassifiers>
    <_>
      <internalNodes>
        0 -1 8632 -1048585 -8933837 241847354 1970736243 150458107
        -1175457869 70569145 -1073741889</internalNodes>
      <leafValues>
        -3.4617307782173157e-01 5.3452169895172119e-01</leafValues></_>
    <_>
      <internalNodes>
        0 -1 684 -76549153 -76808257 -3075 -46235665 557949042
        -1088978945 -134219781 903869439</internalNodes>
      <leafValues>
        -3.3021157979965210e-01 4.5839327573776245e-01</leafValues></_>
    <_>
      <internalNodes>
        0 -1 4470 -419435902 -621875249 -1024023389 -201593105
        -842027122 984846 -975182145 -142610449</internalNodes>
      <leafValues>
        -3.1227019429206848e-01 4.4261488318443298e-01</leafValues></_>
    <_>
      <internalNodes>
        0 -1 4770 -237537441 -218858881 -26214915 -260941442 -263238071
        -293710995 -302006788 -335479560</internalNodes>
      <leafValues>
        -4.3250066041946411e-01 3.2655856013298035e-01</leafValues></_>
    <_>
      <internalNodes>
        0 -1 7660 -7421014 866129418 982986752 1067659554 1361490056
        822621457 666829256 1605367759</internalNodes>
      <leafValues>
        -4.9734130501747131e-01 2.8146293759346008e-01</leafValues></_>
    <_>
      <internalNodes>
        0 -1 5667 -67129602 1072962476 764741434 2111388092 1072565946
        1005861112 707702778 -33703174</internalNodes>
      <leafValues>
        -4.0449431538581848e-01 3.4473496675491333e-01</leafValues></_>
    <_>
      <internalNodes>
        0 -1 5917 -335560705 787397598 -40109167 -229450794 -374189
        710975773 -85034524 -868689424</internalNodes>
      <leafValues>
        -4.6537983417510986e-01 2.9023578763008118e-01</leafValues></_>
    <_>
      <internalNodes>
        0 -1 3919 1786318755 1388182487 1308589879 1790106330 249417199
        972851338 1589211505 2080370383</internalNodes>
      <leafValues>
        -5.3348982334136963e-01 2.6836237311363220e-01</leafValues></_>
    <_>
      <internalNodes>
        0 -1 4654 -109857885 12657313 1602370555 2131965147 -820908117
        -1954176261 6648295 17254994</internalNodes>
      <leafValues>
        -5.1228940486907959e-01 2.7048909664154053e-01</leafValues></_>
    <_>
      <internalNodes>
        0 -1 7666 1904048682 2033793301 810635806 1461129219 -207703894
        268972812 869220335 1343746942</internalNodes>
      <leafValues>
        -5.2383738756179810e-01 2.7942392230033875e-01</leafValues></_>
    <_>
      <internalNodes>
        0 -1 38 -1028674569 483390455 -710588417 -270812947 -536221761
        1080289679 -1100545601 1314340945</internalNodes>
      <leafValues>
        -4.8928290605545044e-01 2.9991692304611206e-01</leafValues></_>
    <_>
      <internalNodes>
        0 -1 6158 -84417845 -215265077 -1561714397 1929594938 -141565021
        34410011 20701435 -538189825</internalNodes>
      <leafValues>
        -3.2430535554885864e-01 4.7170639038085938e-01</leafValues></_></weakClassifiers></stage9>
</opencv_storage>
