<?xml version="1.0"?>
<opencv_storage>
<stage8>
  <maxWeakCount>11</maxWeakCount>
  <stageThreshold>-1.6467438936233521e+00</stageThreshold>
  <weakClassifiers>
    <_>
      <internalNodes>
        0 -1 8643 -1364459657 -570556489 268238197 -1917976713
        -1398211073 -1073873163 783865333 -264193</internalNodes>
      <leafValues>
        -4.0031173825263977e-01 4.4412839412689209e-01</leafValues></_>
    <_>
      <internalNodes>
        0 -1 5281 -1953517789 164608567 -402685165 -825425938 838549503
        267365374 905541619 -587334681</internalNodes>
      <leafValues>
        -5.3130000829696655e-01 2.8698936104774475e-01</leafValues></_>
    <_>
      <internalNodes>
        0 -1 8427 -153682053 -95750433 -33557025 -426838081 -18743297
        -269551105 -55574565 -386072850</internalNodes>
      <leafValues>
        -3.7990432977676392e-01 4.0808880329132080e-01</leafValues></_>
    <_>
      <internalNodes>
        0 -1 6772 -2162754 -1312842342 -1599338312 355209250 1596862398
        329267376 413931690 865057727</internalNodes>
      <leafValues>
        -5.3647536039352417e-01 2.9263630509376526e-01</leafValues></_>
    <_>
      <internalNodes>
        0 -1 4618 -1969033040 -80545921 1432352125 471022333 701056959
        2040441339 334200831 -1912629771</internalNodes>
      <leafValues>
        -5.4763078689575195e-01 2.6385113596916199e-01</leafValues></_>
    <_>
      <internalNodes>
        0 -1 4365 -201327894 -786055287 -1293425488 1928854239
        -768618802 1142683906 -691801436 -134224897</internalNodes>
      <leafValues>
        -3.8780710101127625e-01 3.7126770615577698e-01</leafValues></_>
    <_>
      <internalNodes>
        0 -1 6513 187391319 748712532 937156604 -151857060 -1242342846
        -1511337143 1437964276 -533687952</internalNodes>
      <leafValues>
        -6.0791379213333130e-01 2.6547890901565552e-01</leafValues></_>
    <_>
      <internalNodes>
        0 -1 6385 -140255265 -687804512 -604547565 -142475520 1069515003
        113147825 524240087 -8522379</internalNodes>
      <leafValues>
        -3.0728977918624878e-01 4.7684675455093384e-01</leafValues></_>
    <_>
      <internalNodes>
        0 -1 6662 -615530358 -885538686 134226050 1904164885 -855405885
        1073827928 102494875 1594613403</internalNodes>
      <leafValues>
        -4.1355168819427490e-01 3.4362602233886719e-01</leafValues></_>
    <_>
      <internalNodes>
        0 -1 4105 1956519735 -2369707 1447009663 -542188722 1855712187
        -68211941 -44302545 481168686</internalNodes>
      <leafValues>
        -4.5168620347976685e-01 3.1159198284149170e-01</leafValues></_>
    <_>
      <internalNodes>
        0 -1 6245 -55590334 -227628465 -2099002318 -738462045
        -1478505762 1678732855 -167790913 -142606465</internalNodes>
      <leafValues>
        -3.4511199593544006e-01 4.1324216127395630e-01</leafValues></_></weakClassifiers></stage8>
</opencv_storage>
