<?xml version="1.0"?>
<opencv_storage>
<stage14>
  <maxWeakCount>14</maxWeakCount>
  <stageThreshold>-1.3522620201110840e+00</stageThreshold>
  <weakClassifiers>
    <_>
      <internalNodes>
        0 -1 8352 -4557 1428620401 216942704 -579728336 784183295
        -20978689 213716153 -922748229</internalNodes>
      <leafValues>
        -3.7133038043975830e-01 3.9111289381980896e-01</leafValues></_>
    <_>
      <internalNodes>
        0 -1 5791 1551693731 2110566833 1595792641 -704645645 -38697057
        -339890761 -1925585467 2000680375</internalNodes>
      <leafValues>
        -3.9485067129135132e-01 3.1236878037452698e-01</leafValues></_>
    <_>
      <internalNodes>
        0 -1 6422 -1883259341 1530642431 -1650460897 1476391894
        301971441 -57673569 -1107322903 -1930503684</internalNodes>
      <leafValues>
        -3.5721650719642639e-01 3.2089552283287048e-01</leafValues></_>
    <_>
      <internalNodes>
        0 -1 6404 -100664645 10289314 -68576257 -1946160918 -285737217
        -1358994737 -406017093 1735880383</internalNodes>
      <leafValues>
        -3.6480745673179626e-01 3.1407815217971802e-01</leafValues></_>
    <_>
      <internalNodes>
        0 -1 5578 -88096086 -244873214 279978116 326082791 -559165822
        101122312 1111679658 1394579339</internalNodes>
      <leafValues>
        -4.3135887384414673e-01 2.8697761893272400e-01</leafValues></_>
    <_>
      <internalNodes>
        0 -1 5337 -313012513 803533546 -81858319 -1279068164 -70301174
        -41140465 -271602700 -936183560</internalNodes>
      <leafValues>
        -4.1036134958267212e-01 2.7487412095069885e-01</leafValues></_>
    <_>
      <internalNodes>
        0 -1 4082 587145537 2071183667 -854983459 2136949752 2064606141
        -1078199297 983509965 147461184</internalNodes>
      <leafValues>
        -4.4997161626815796e-01 2.7371162176132202e-01</leafValues></_>
    <_>
      <internalNodes>
        0 -1 7207 -20263176 956470411 -1585445494 494934186 1512025992
        581056325 1150228394 2042624923</internalNodes>
      <leafValues>
        -5.1282733678817749e-01 1.8736638128757477e-01</leafValues></_>
    <_>
      <internalNodes>
        0 -1 6832 1679139351 -2235907 656739604 2004326621 2110562701
        -44892143 -976414260 -107234345</internalNodes>
      <leafValues>
        -3.0348029732704163e-01 3.6303290724754333e-01</leafValues></_>
    <_>
      <internalNodes>
        0 -1 8102 34317315 -1911652100 1180851199 -1426786070
        -1074095298 -824188419 -269158443 -1040910604</internalNodes>
      <leafValues>
        -4.7724637389183044e-01 2.2376416623592377e-01</leafValues></_>
    <_>
      <internalNodes>
        0 -1 2587 -264225 -1678983306 -100664577 -1145574405 -269066661
        -1201342926 -1652698945 -1153961093</internalNodes>
      <leafValues>
        -2.2183880209922791e-01 5.0603359937667847e-01</leafValues></_>
    <_>
      <internalNodes>
        0 -1 6274 -156569092 2113084012 1053818938 826224563 2056160398
        1001931744 772287150 2041032607</internalNodes>
      <leafValues>
        -4.6033823490142822e-01 2.5673362612724304e-01</leafValues></_>
    <_>
      <internalNodes>
        0 -1 5937 -1135187266 -691485285 -2102136577 -29836836
        -1360246264 -1345074621 1509940476 -1203713848</internalNodes>
      <leafValues>
        -4.3101045489311218e-01 2.7696093916893005e-01</leafValues></_>
    <_>
      <internalNodes>
        0 -1 5693 -758136634 -160477905 -258019280 1894932478 -892417062
        1107564819 -738332498 -671093073</internalNodes>
      <leafValues>
        -3.5008221864700317e-01 3.3383628726005554e-01</leafValues></_></weakClassifiers></stage14>
</opencv_storage>
