<?xml version="1.0"?>
<opencv_storage>
<stage7>
  <maxWeakCount>11</maxWeakCount>
  <stageThreshold>-1.3524613380432129e+00</stageThreshold>
  <weakClassifiers>
    <_>
      <internalNodes>
        0 -1 7291 -268451913 -1073793608 -1344457353 -51407 -872297097
        212141491 1427502455 -10753</internalNodes>
      <leafValues>
        -4.1257736086845398e-01 4.4294235110282898e-01</leafValues></_>
    <_>
      <internalNodes>
        0 -1 43 1129826295 -2376809 -1782620161 -536889648 -577777681
        -541069121 -536884265 1743243252</internalNodes>
      <leafValues>
        -4.7360444068908691e-01 3.5549521446228027e-01</leafValues></_>
    <_>
      <internalNodes>
        0 -1 4537 -2063388493 -135289103 254217621 -49328879 -1970291523
        -271678424 -1892827235 -540017616</internalNodes>
      <leafValues>
        -3.8007736206054688e-01 4.1885524988174438e-01</leafValues></_>
    <_>
      <internalNodes>
        0 -1 7678 -771763026 1528356920 -188801024 -7613190 1047402158
        942292506 548290632 -2054</internalNodes>
      <leafValues>
        -3.6212715506553650e-01 4.0957698225975037e-01</leafValues></_>
    <_>
      <internalNodes>
        0 -1 5353 -212900037 -456992257 1960508159 -732790786 -83031993
        -539886833 -285213188 -938411592</internalNodes>
      <leafValues>
        -3.9683157205581665e-01 3.7991595268249512e-01</leafValues></_>
    <_>
      <internalNodes>
        0 -1 5867 -1060179038 324073465 -1798769667 -586482215
        -1932817185 -1915627779 267357647 -545523717</internalNodes>
      <leafValues>
        -4.3729454278945923e-01 3.5188013315200806e-01</leafValues></_>
    <_>
      <internalNodes>
        0 -1 6841 -600721989 219161907 -1342235129 -34097389 -1371693639
        524228599 926823797 -11051</internalNodes>
      <leafValues>
        -3.5152170062065125e-01 4.7297039628028870e-01</leafValues></_>
    <_>
      <internalNodes>
        0 -1 8309 -34225042 2132966658 1378896896 1902356514 -1358713174
        170638862 1191161595 -542115981</internalNodes>
      <leafValues>
        -3.4904816746711731e-01 4.2461022734642029e-01</leafValues></_>
    <_>
      <internalNodes>
        0 -1 4244 -144705609 1407373687 -11339297 280818075 1138750463
        216404982 -4212277 730594015</internalNodes>
      <leafValues>
        -4.2589777708053589e-01 3.4974831342697144e-01</leafValues></_>
    <_>
      <internalNodes>
        0 -1 3819 8266531 -536958174 1469313023 -1107570045 7221947
        -231821149 -272717057 -209979469</internalNodes>
      <leafValues>
        -4.6145075559616089e-01 3.3496901392936707e-01</leafValues></_>
    <_>
      <internalNodes>
        0 -1 2455 -420553618 1899557855 -33721849 -1837367797 1085358112
        627612179 1489436740 -235145473</internalNodes>
      <leafValues>
        -4.4473314285278320e-01 3.2484307885169983e-01</leafValues></_></weakClassifiers></stage7>
</opencv_storage>
