<?xml version="1.0"?>
<opencv_storage>
<stage12>
  <maxWeakCount>14</maxWeakCount>
  <stageThreshold>-1.3883963823318481e+00</stageThreshold>
  <weakClassifiers>
    <_>
      <internalNodes>
        0 -1 1739 -1145570881 1064401311 1024807132 868586691 1387143935
        -1078228839 1351685372 300675259</internalNodes>
      <leafValues>
        -4.3920353055000305e-01 3.5064935684204102e-01</leafValues></_>
    <_>
      <internalNodes>
        0 -1 3178 -738332493 -546054401 -8391308 1932734973 1563019491
        -536585 1610597883 -708886025</internalNodes>
      <leafValues>
        -3.4071895480155945e-01 4.1674545407295227e-01</leafValues></_>
    <_>
      <internalNodes>
        0 -1 2317 -284164109 -142625965 1308622847 1342157427 67626679
        -105148685 1339019251 -536909337</internalNodes>
      <leafValues>
        -3.1165948510169983e-01 4.0935918688774109e-01</leafValues></_>
    <_>
      <internalNodes>
        0 -1 6846 -947919957 -144708615 52145085 1946137599 -12189761
        -143264909 789482143 -339230293</internalNodes>
      <leafValues>
        -2.6563015580177307e-01 4.6299070119857788e-01</leafValues></_>
    <_>
      <internalNodes>
        0 -1 4500 -758190486 -801460354 -1158498622 -233640193
        -153823348 1428586264 -374372674 -134498561</internalNodes>
      <leafValues>
        -3.2507249712944031e-01 3.6522597074508667e-01</leafValues></_>
    <_>
      <internalNodes>
        0 -1 4741 1153909503 -125894786 -1149960193 -9273347 1346325338
        -1111689457 -780337668 -15540740</internalNodes>
      <leafValues>
        -3.3096292614936829e-01 3.7231823801994324e-01</leafValues></_>
    <_>
      <internalNodes>
        0 -1 7364 -1481916421 -1104537666 -71631112 -76350726 -1313347
        -1360887358 -540295749 -1914492494</internalNodes>
      <leafValues>
        -3.4994590282440186e-01 3.5287916660308838e-01</leafValues></_>
    <_>
      <internalNodes>
        0 -1 8321 -181535830 -217371998 -1033836542 1936977712
        -1490114902 1789567882 -1373729606 -671353345</internalNodes>
      <leafValues>
        -2.7237251400947571e-01 4.4859987497329712e-01</leafValues></_>
    <_>
      <internalNodes>
        0 -1 6684 -288360960 -466892562 1082585762 1088412046 -244586751
        117891631 1977590403 -757078033</internalNodes>
      <leafValues>
        -4.1896313428878784e-01 2.9743811488151550e-01</leafValues></_>
    <_>
      <internalNodes>
        0 -1 911 547995057 -46434980 -14688289 -14698288 1260903389
        -23358067 -338974036 -255354592</internalNodes>
      <leafValues>
        -3.5467034578323364e-01 3.3145549893379211e-01</leafValues></_>
    <_>
      <internalNodes>
        0 -1 5889 -269766365 6327756 -268772878 366376414 -1677859626
        -1899989627 -734211594 -805440517</internalNodes>
      <leafValues>
        -3.5261237621307373e-01 3.4462413191795349e-01</leafValues></_>
    <_>
      <internalNodes>
        0 -1 3818 -1036967775 -10515159 -306843137 -1925115325
        -435557889 -1164407135 1774780143 -1627327199</internalNodes>
      <leafValues>
        -3.5222738981246948e-01 3.3850356936454773e-01</leafValues></_>
    <_>
      <internalNodes>
        0 -1 6954 -1692529833 -1338733456 233831391 -537592856
        -675546850 -1078821889 -605165060 -651163568</internalNodes>
      <leafValues>
        -3.7700399756431580e-01 3.1535157561302185e-01</leafValues></_>
    <_>
      <internalNodes>
        0 -1 643 1889529359 -1227763713 1293620175 -87041059 4243512
        1930656212 1427466079 2130411007</internalNodes>
      <leafValues>
        -4.2208066582679749e-01 2.9046082496643066e-01</leafValues></_></weakClassifiers></stage12>
</opencv_storage>
