<?xml version="1.0"?>
<opencv_storage>
<stage5>
  <maxWeakCount>10</maxWeakCount>
  <stageThreshold>-1.2398339509963989e+00</stageThreshold>
  <weakClassifiers>
    <_>
      <internalNodes>
        0 -1 5224 -802032989 1356044427 -147326985 -549715969 -813174801
        -1884824833 84004807 -2016956721</internalNodes>
      <leafValues>
        -4.8582231998443604e-01 4.3420350551605225e-01</leafValues></_>
    <_>
      <internalNodes>
        0 -1 5981 -75497601 -67109889 -129 -88408065 -83886337 -83886145
        -67108945 -1431373057</internalNodes>
      <leafValues>
        -3.7819993495941162e-01 5.1712578535079956e-01</leafValues></_>
    <_>
      <internalNodes>
        0 -1 5087 -284930 1062667960 214961808 523722456 235053722
        458365070 456240830 -261</internalNodes>
      <leafValues>
        -4.0948322415351868e-01 4.5960080623626709e-01</leafValues></_>
    <_>
      <internalNodes>
        0 -1 5862 -1013979391 -1573396161 -171442697 -411576322
        -1682180105 -1275206195 -168827401 -1653094941</internalNodes>
      <leafValues>
        -4.3995043635368347e-01 3.9721360802650452e-01</leafValues></_>
    <_>
      <internalNodes>
        0 -1 7701 -545275136 1935761410 1362571296 1964364113 -224598290
        1241686048 1630172110 1164436431</internalNodes>
      <leafValues>
        -5.5862021446228027e-01 3.0057883262634277e-01</leafValues></_>
    <_>
      <internalNodes>
        0 -1 6771 -20004158 -175376498 -489365326 -253757697 -1593851708
        50776580 -235055900 -134223873</internalNodes>
      <leafValues>
        -4.0929993987083435e-01 4.2278814315795898e-01</leafValues></_>
    <_>
      <internalNodes>
        0 -1 4640 43984675 -1565532225 260395697 184337070 788380671
        -1107305569 1066993085 -1106515</internalNodes>
      <leafValues>
        -5.1832699775695801e-01 3.3932933211326599e-01</leafValues></_>
    <_>
      <internalNodes>
        0 -1 377 -805311773 -925369355 1590684663 -3147779 1466918913
        -112237817 1275056897 -270548576</internalNodes>
      <leafValues>
        -4.5319354534149170e-01 3.7203592061996460e-01</leafValues></_>
    <_>
      <internalNodes>
        0 -1 6825 1898317600 2106339616 943068468 389670145 346762424
        923476258 1731099118 -71320641</internalNodes>
      <leafValues>
        -4.8517733812332153e-01 3.4450873732566833e-01</leafValues></_>
    <_>
      <internalNodes>
        0 -1 2231 -243533827 292558176 -1659663105 1438601477 1218944222
        290511259 -1674716485 392036271</internalNodes>
      <leafValues>
        -4.5149600505828857e-01 3.8071587681770325e-01</leafValues></_></weakClassifiers></stage5>
</opencv_storage>
