<?xml version="1.0"?>
<opencv_storage>
<stage15>
  <maxWeakCount>16</maxWeakCount>
  <stageThreshold>-1.2728109359741211e+00</stageThreshold>
  <weakClassifiers>
    <_>
      <internalNodes>
        0 -1 8386 734001087 143654835 -430475465 -825229449 -1075844481
        -1360082753 -1312905 -973603849</internalNodes>
      <leafValues>
        -4.8524844646453857e-01 2.7259412407875061e-01</leafValues></_>
    <_>
      <internalNodes>
        0 -1 8622 -2097990 2134843454 1957317816 1462961268 1761365168
        478279073 1819417736 2145361843</internalNodes>
      <leafValues>
        -3.7681904435157776e-01 3.2159432768821716e-01</leafValues></_>
    <_>
      <internalNodes>
        0 -1 4616 373228339 -357785037 116806449 1823393329 781958067
        -1426079257 1575966711 2078217393</internalNodes>
      <leafValues>
        -5.1053678989410400e-01 2.1134667098522186e-01</leafValues></_>
    <_>
      <internalNodes>
        0 -1 4352 -54569473 1008738196 1516199807 1056972686 1008033471
        941635647 744849391 -4522514</internalNodes>
      <leafValues>
        -3.3177068829536438e-01 3.2715162634849548e-01</leafValues></_>
    <_>
      <internalNodes>
        0 -1 6868 -780993554 1366422096 -86048769 -604053537 -1884295169
        -1107326985 -2069379785 -1099436033</internalNodes>
      <leafValues>
        -2.8996890783309937e-01 3.8423284888267517e-01</leafValues></_>
    <_>
      <internalNodes>
        0 -1 7374 -1356089597 -1427163210 -276168907 -1399002882
        -88083596 683531955 -536938540 -860032064</internalNodes>
      <leafValues>
        -4.8038360476493835e-01 2.1346755325794220e-01</leafValues></_>
    <_>
      <internalNodes>
        0 -1 5086 -226821912 -99283456 583144420 1934813764 -210579832
        100877402 1423483854 2071981963</internalNodes>
      <leafValues>
        -4.1523081064224243e-01 2.6622149348258972e-01</leafValues></_>
    <_>
      <internalNodes>
        0 -1 724 2013198111 -84852001 1675355775 -204475234 1346818580
        1937180996 1468915998 -33555972</internalNodes>
      <leafValues>
        -3.4432306885719299e-01 3.2701504230499268e-01</leafValues></_>
    <_>
      <internalNodes>
        0 -1 4035 1451181693 1356396959 -1974478659 -264350882
        1769932296 -399759089 -466426916 -63766868</internalNodes>
      <leafValues>
        -3.7619492411613464e-01 2.7758178114891052e-01</leafValues></_>
    <_>
      <internalNodes>
        0 -1 4367 -73678174 1272923530 34100086 323900083 -399867766
        747522594 1375930510 1364852440</internalNodes>
      <leafValues>
        -4.7876805067062378e-01 2.2525471448898315e-01</leafValues></_>
    <_>
      <internalNodes>
        0 -1 3981 -2133921629 -581765326 1173877425 -988709390
        -1939014169 -1927938441 1340466635 -1679819538</internalNodes>
      <leafValues>
        -2.9117354750633240e-01 3.7983006238937378e-01</leafValues></_>
    <_>
      <internalNodes>
        0 -1 7696 1996484986 -579522510 888873747 1571639664 381370046
        -1172145542 183395898 -2113</internalNodes>
      <leafValues>
        -3.2632467150688171e-01 3.4431439638137817e-01</leafValues></_>
    <_>
      <internalNodes>
        0 -1 5754 -1576127917 -14911915 -1636356235 -47727597
        -1074024742 -1111149 -1427193957 -368775119</internalNodes>
      <leafValues>
        -2.6993587613105774e-01 3.9433646202087402e-01</leafValues></_>
    <_>
      <internalNodes>
        0 -1 7554 -690041950 -821082130 -153689568 -218478465 -485755115
        55476489 -511183946 -403707201</internalNodes>
      <leafValues>
        -3.4028339385986328e-01 3.2362288236618042e-01</leafValues></_>
    <_>
      <internalNodes>
        0 -1 6899 -288382845 -1033475465 1048030207 -270114594
        1022342398 15523895 581896426 -948967433</internalNodes>
      <leafValues>
        -3.8417345285415649e-01 2.7768421173095703e-01</leafValues></_>
    <_>
      <internalNodes>
        0 -1 4101 6301225 -13369641 2145844863 -679551233 -25899073
        -5505041 -33558625 -186142878</internalNodes>
      <leafValues>
        -2.8078377246856689e-01 3.8561660051345825e-01</leafValues></_></weakClassifiers></stage15>
</opencv_storage>
