<?xml version="1.0"?>
<opencv_storage>
<stage10>
  <maxWeakCount>11</maxWeakCount>
  <stageThreshold>-1.2021290063858032e+00</stageThreshold>
  <weakClassifiers>
    <_>
      <internalNodes>
        0 -1 6798 -447369451 -44585644 -1857706219 -581584484 -640160801
        -304807851 -36917281 298134431</internalNodes>
      <leafValues>
        -5.4744225740432739e-01 2.8256905078887939e-01</leafValues></_>
    <_>
      <internalNodes>
        0 -1 8671 -2121551333 -1396004897 -711002379 -87361028 -16781705
        -1361123876 -137439371 -991626507</internalNodes>
      <leafValues>
        -4.8855048418045044e-01 2.9396602511405945e-01</leafValues></_>
    <_>
      <internalNodes>
        0 -1 1561 -268440829 -385943765 1530093315 -708838425
        -1059265024 -961296617 1135702272 -134217817</internalNodes>
      <leafValues>
        -3.9751270413398743e-01 3.4688866138458252e-01</leafValues></_>
    <_>
      <internalNodes>
        0 -1 6517 -1409584001 -1807596330 -584066179 -1194265136
        -1317835174 -1904027121 -604046852 -1140801340</internalNodes>
      <leafValues>
        -4.0907922387123108e-01 3.3666127920150757e-01</leafValues></_>
    <_>
      <internalNodes>
        0 -1 8255 -612894849 293709627 -586429505 626123899 1345585133
        489879925 -807934213 1077082235</internalNodes>
      <leafValues>
        -4.1432693600654602e-01 3.1591540575027466e-01</leafValues></_>
    <_>
      <internalNodes>
        0 -1 6345 35653296 367396788 942806064 -536924916 556017582
        315621656 834482346 -32837</internalNodes>
      <leafValues>
        -5.5680787563323975e-01 2.1482917666435242e-01</leafValues></_>
    <_>
      <internalNodes>
        0 -1 4997 -153097598 -684728665 -219154816 -252641571 -61943160
        1112210696 1728041088 -203424785</internalNodes>
      <leafValues>
        -3.5063412785530090e-01 3.8690093159675598e-01</leafValues></_>
    <_>
      <internalNodes>
        0 -1 7120 -81018710 -485840376 1078362272 1126385315 -1987067892
        1124303362 1110327726 1127936475</internalNodes>
      <leafValues>
        -4.8559042811393738e-01 2.8128436207771301e-01</leafValues></_>
    <_>
      <internalNodes>
        0 -1 4809 896669619 469491167 -6557123 -43115653 1459404543
        -1090797585 -402654209 749605112</internalNodes>
      <leafValues>
        -4.9740374088287354e-01 2.5759470462799072e-01</leafValues></_>
    <_>
      <internalNodes>
        0 -1 5858 43688497 -996167713 859568117 -1120142434 -1728073293
        -855937379 -1074140685 -1074013697</internalNodes>
      <leafValues>
        -4.2628052830696106e-01 3.1577020883560181e-01</leafValues></_>
    <_>
      <internalNodes>
        0 -1 4472 -880824648 -191430608 42274958 156359334 12821166
        296225148 713929450 -274072614</internalNodes>
      <leafValues>
        -3.5424837470054626e-01 3.7004023790359497e-01</leafValues></_></weakClassifiers></stage10>
</opencv_storage>
