<?xml version="1.0"?>
<opencv_storage>
<stage4>
  <maxWeakCount>8</maxWeakCount>
  <stageThreshold>-1.2252392768859863e+00</stageThreshold>
  <weakClassifiers>
    <_>
      <internalNodes>
        0 -1 8531 -1025 -1726240001 -1148455941 186888583 -75377669
        -1077292905 -268435473 15202303</internalNodes>
      <leafValues>
        -4.9261459708213806e-01 4.7967478632926941e-01</leafValues></_>
    <_>
      <internalNodes>
        0 -1 1215 -277106945 402328563 134167487 1035962303 259393271
        493944947 254215669 2138513399</internalNodes>
      <leafValues>
        -6.1556732654571533e-01 3.3699384331703186e-01</leafValues></_>
    <_>
      <internalNodes>
        0 -1 3874 1510004896 1597165819 -547686920 524104149 1359344383
        -558980390 2044065279 -842025475</internalNodes>
      <leafValues>
        -5.8325803279876709e-01 3.3818078041076660e-01</leafValues></_>
    <_>
      <internalNodes>
        0 -1 5058 -70531414 -215514548 2310817 1931731663 -208942454
        410958 1431290255 -134217761</internalNodes>
      <leafValues>
        -3.4942367672920227e-01 5.5090236663818359e-01</leafValues></_>
    <_>
      <internalNodes>
        0 -1 5345 -269003265 15103735 -184549892 -223192066 1864325642
        1298972939 -705266764 -938410504</internalNodes>
      <leafValues>
        -5.6630015373229980e-01 3.2710859179496765e-01</leafValues></_>
    <_>
      <internalNodes>
        0 -1 7144 -3159414 -546618878 1086308961 1929633883 -2102410353
        1145226240 1133683083 -214173697</internalNodes>
      <leafValues>
        -4.3038511276245117e-01 4.3886357545852661e-01</leafValues></_>
    <_>
      <internalNodes>
        0 -1 6351 -1067990781 -145415421 889652519 -707800237 924030391
        -24084351 1463903407 -678178365</internalNodes>
      <leafValues>
        -3.5880991816520691e-01 4.8560285568237305e-01</leafValues></_>
    <_>
      <internalNodes>
        0 -1 673 -204214449 -159926417 784322719 -188743841 1375732820
        573990900 1333260639 -33282</internalNodes>
      <leafValues>
        -4.3804934620857239e-01 4.0846213698387146e-01</leafValues></_></weakClassifiers></stage4>
</opencv_storage>
