<?xml version="1.0"?>
<opencv_storage>
<stage5>
  <maxWeakCount>11</maxWeakCount>
  <stageThreshold>-4.1625895500183105e+00</stageThreshold>
  <weakClassifiers>
    <_>
      <internalNodes>
        0 -1 3965 -83889990 -11041 1505746943 2146636027 -69603329
        -55738216 -44696833 -707400961</internalNodes>
      <leafValues>
        -7.6301419734954834e-01 3.7617021799087524e-01</leafValues></_>
    <_>
      <internalNodes>
        0 -1 4438 -2128946 999465966 68223516 1007140062 546125562
        834674828 -1550875716 -67110929</internalNodes>
      <leafValues>
        -6.3205158710479736e-01 5.0071978569030762e-01</leafValues></_>
    <_>
      <internalNodes>
        0 -1 7815 -3145729 -290521602 -541884418 -357368872 -202377227
        -319046677 -236457483 -185276176</internalNodes>
      <leafValues>
        -8.4591346979141235e-01 3.8017129898071289e-01</leafValues></_>
    <_>
      <internalNodes>
        0 -1 3208 -137147681 -11342121 -878470695 -6819809 -612939242
        -16731078 -206046413 -786449</internalNodes>
      <leafValues>
        -6.0652804374694824e-01 6.2842959165573120e-01</leafValues></_>
    <_>
      <internalNodes>
        0 -1 678 -805307405 -266251 264241151 -134217729 1131542512
        -34111501 1174405119 -32769</internalNodes>
      <leafValues>
        -5.6311297416687012e-01 6.7247134447097778e-01</leafValues></_>
    <_>
      <internalNodes>
        0 -1 3208 -136885537 -15536417 -876373543 -677908449 -615298538
        -16714696 -71828685 -786449</internalNodes>
      <leafValues>
        -7.1576946973800659e-01 5.4140102863311768e-01</leafValues></_>
    <_>
      <internalNodes>
        0 -1 8632 -257 2113891582 216794364 -671650705 100652541
        99483125 98549945 -637536769</internalNodes>
      <leafValues>
        -5.3960639238357544e-01 7.2009640932083130e-01</leafValues></_>
    <_>
      <internalNodes>
        0 -1 1782 -2120705 -572919345 -778077221 2147466679 -686821409
        -2388273 -1344537601 1427493363</internalNodes>
      <leafValues>
        -7.1952164173126221e-01 5.3702372312545776e-01</leafValues></_>
    <_>
      <internalNodes>
        0 -1 2237 -135270737 -431489257 -74427307 -144329729 -167304704
        1680314381 1948471300 -9175069</internalNodes>
      <leafValues>
        -7.0699155330657959e-01 5.4931777715682983e-01</leafValues></_>
    <_>
      <internalNodes>
        0 -1 475 -888147969 -6292549 -245769761 -6292641 185549567
        -14981797 1868256735 -3297</internalNodes>
      <leafValues>
        -7.9761672019958496e-01 4.6268194913864136e-01</leafValues></_>
    <_>
      <internalNodes>
        0 -1 5020 -111832911 1440063516 1565122029 -708463435
        -1613256533 -1112597873 -86263109 -572548421</internalNodes>
      <leafValues>
        -8.6659896373748779e-01 3.6868017911911011e-01</leafValues></_></weakClassifiers></stage5>
</opencv_storage>
