<?xml version="1.0"?>
<opencv_storage>
<stage12>
  <maxWeakCount>19</maxWeakCount>
  <stageThreshold>-6.4856390953063965e+00</stageThreshold>
  <weakClassifiers>
    <_>
      <internalNodes>
        0 -1 2403 -537873 -211846145 -149860593 -11404293 1946182203
        1919411147 1933961991 -1572869</internalNodes>
      <leafValues>
        -6.3439822196960449e-01 3.7737739086151123e-01</leafValues></_>
    <_>
      <internalNodes>
        0 -1 6422 -1900069069 1526677503 -108273665 -209719074
        1608513527 -72419187 -537930507 -524</internalNodes>
      <leafValues>
        -7.4378609657287598e-01 3.0680850148200989e-01</leafValues></_>
    <_>
      <internalNodes>
        0 -1 1791 1681230127 -4233 -34078721 -262145 -17957889
        -1073827841 -337657889 -256381193</internalNodes>
      <leafValues>
        -4.9136164784431458e-01 5.1395088434219360e-01</leafValues></_>
    <_>
      <internalNodes>
        0 -1 6772 -37748802 1027487630 -1878246742 892256059 -254331142
        279580890 855061178 887568059</internalNodes>
      <leafValues>
        -6.9481337070465088e-01 3.4721302986145020e-01</leafValues></_>
    <_>
      <internalNodes>
        0 -1 2403 -8926513 -612401153 -5157113 -9306121 -65740277
        1987510271 2001037831 -1572933</internalNodes>
      <leafValues>
        -5.2053564786911011e-01 5.6723833084106445e-01</leafValues></_>
    <_>
      <internalNodes>
        0 -1 6867 -83887361 333839231 -15859971 -1142952227 -1631468033
        -537800449 -910571137 -4984929</internalNodes>
      <leafValues>
        -5.7171440124511719e-01 5.0123333930969238e-01</leafValues></_>
    <_>
      <internalNodes>
        0 -1 5210 830550945 -173178109 -249168009 -135951497 -243027551
        -504785407 -38824961 -167806989</internalNodes>
      <leafValues>
        -6.5846639871597290e-01 3.2142782211303711e-01</leafValues></_>
    <_>
      <internalNodes>
        0 -1 3247 -604026145 -204213345 613077775 -8981681 -553498038
        -32257202 -107021473 -9241605</internalNodes>
      <leafValues>
        -7.2573500871658325e-01 2.2225385904312134e-01</leafValues></_>
    <_>
      <internalNodes>
        0 -1 4616 1549795259 -4990145 1046363583 -88189505 1586731967
        -1095290821 2140749759 -59077</internalNodes>
      <leafValues>
        -6.1646997928619385e-01 3.6090508103370667e-01</leafValues></_>
    <_>
      <internalNodes>
        0 -1 4438 -2118690 866588639 178454940 -1145310374 1358931710
        2001744280 -220493910 -67109921</internalNodes>
      <leafValues>
        -5.7968771457672119e-01 4.3295410275459290e-01</leafValues></_>
    <_>
      <internalNodes>
        0 -1 3277 2147435536 -536931329 1342949823 -33853233 -3876608
        -573622242 -68424865 -15663325</internalNodes>
      <leafValues>
        -7.8128015995025635e-01 2.8123742341995239e-01</leafValues></_>
    <_>
      <internalNodes>
        0 -1 7795 -1366295689 788460543 -10847905 -308803700 -2444938
        -544614487 -1250329 -50465548</internalNodes>
      <leafValues>
        -7.4402081966400146e-01 3.7351268529891968e-01</leafValues></_>
    <_>
      <internalNodes>
        0 -1 4750 872398847 526356863 -183001601 944960254 999258747
        2072721623 2089775960 -13436998</internalNodes>
      <leafValues>
        -8.2417124509811401e-01 3.4143894910812378e-01</leafValues></_>
    <_>
      <internalNodes>
        0 -1 3277 2147435520 -570477569 1343211951 -168070945 -3875840
        -573577188 -1175723174 -15671517</internalNodes>
      <leafValues>
        -9.1601717472076416e-01 2.8462746739387512e-01</leafValues></_>
    <_>
      <internalNodes>
        0 -1 7795 -1366295689 788460543 -48596641 -304609396 -3491466
        -813049943 -1512473 -1124208412</internalNodes>
      <leafValues>
        -8.9328086376190186e-01 3.5846415162086487e-01</leafValues></_>
    <_>
      <internalNodes>
        0 -1 3247 -539276593 -229182565 209884043 2138239823 -552991166
        -32259509 -107283697 -143459589</internalNodes>
      <leafValues>
        -9.7149628400802612e-01 2.9666745662689209e-01</leafValues></_>
    <_>
      <internalNodes>
        0 -1 5210 830484608 1974436545 -780812937 -404383515 1904980401
        -370437504 -40920149 -189975727</internalNodes>
      <leafValues>
        -9.7970914840698242e-01 4.1977635025978088e-01</leafValues></_>
    <_>
      <internalNodes>
        0 -1 6661 -287579642 -951060345 1073842440 13495014 -328831194
        1444651057 1187472187 1132460782</internalNodes>
      <leafValues>
        -9.9469602108001709e-01 2.5398781895637512e-01</leafValues></_>
    <_>
      <internalNodes>
        0 -1 7649 -381970033 2131097864 289625359 1929851658 -6687059
        1545120768 -128975985 1075490378</internalNodes>
      <leafValues>
        -9.9756741523742676e-01 3.3493071794509888e-01</leafValues></_></weakClassifiers></stage12>
</opencv_storage>
