<?xml version="1.0"?>
<opencv_storage>
<stage8>
  <maxWeakCount>13</maxWeakCount>
  <stageThreshold>-5.5403695106506348e+00</stageThreshold>
  <weakClassifiers>
    <_>
      <internalNodes>
        0 -1 7311 -134291389 -202128781 -304091137 -6292741 -1409708289
        -676328357 -1988523649 -813695105</internalNodes>
      <leafValues>
        -7.0498764514923096e-01 3.4405285120010376e-01</leafValues></_>
    <_>
      <internalNodes>
        0 -1 3276 -12337 -605046401 711904075 -612984997 -537967857
        -182758653 -1376417 -248318081</internalNodes>
      <leafValues>
        -6.3793528079986572e-01 4.2130216956138611e-01</leafValues></_>
    <_>
      <internalNodes>
        0 -1 7611 -209722637 1937703506 2095676143 1398227187 -103815425
        -2099298106 -1048577 1946141439</internalNodes>
      <leafValues>
        -5.8740508556365967e-01 4.7328689694404602e-01</leafValues></_>
    <_>
      <internalNodes>
        0 -1 6730 -218175282 -1863123713 2058022818 -705167697
        -202136923 3200497 -1065358662 -134217745</internalNodes>
      <leafValues>
        -5.0901353359222412e-01 5.6688725948333740e-01</leafValues></_>
    <_>
      <internalNodes>
        0 -1 6856 -1086472261 -1613382723 -1579942537 -545279081
        -1073873921 -1143488277 1073214325 -1073742857</internalNodes>
      <leafValues>
        -5.9200888872146606e-01 5.3105342388153076e-01</leafValues></_>
    <_>
      <internalNodes>
        0 -1 6856 -1078083653 -1613382723 -1579942537 -545262633
        -1073873921 -1143488277 1073214325 -1033</internalNodes>
      <leafValues>
        -6.1264765262603760e-01 5.0079685449600220e-01</leafValues></_>
    <_>
      <internalNodes>
        0 -1 7375 -153157633 2129584495 -551815169 -7687378 -70520331
        -72358933 -6292483 -574973767</internalNodes>
      <leafValues>
        -7.7598011493682861e-01 2.4842502176761627e-01</leafValues></_>
    <_>
      <internalNodes>
        0 -1 3870 -1297964319 -68820925 2111561713 -528043 -1548175453
        -1153984000 -611582977 -6309981</internalNodes>
      <leafValues>
        -6.2738698720932007e-01 4.4483426213264465e-01</leafValues></_>
    <_>
      <internalNodes>
        0 -1 975 -774794753 -40558595 -2062444545 -103420965 -215761921
        -101987937 1940505055 -237901833</internalNodes>
      <leafValues>
        -6.4390909671783447e-01 4.5802080631256104e-01</leafValues></_>
    <_>
      <internalNodes>
        0 -1 4761 -571181067 -53153313 -246036321 -6466081 -73598539
        -121541937 -335680514 -68141068</internalNodes>
      <leafValues>
        -8.4094887971878052e-01 1.9900120794773102e-01</leafValues></_>
    <_>
      <internalNodes>
        0 -1 5278 -1002704639 -11676068 141685461 -1141118211
        -1933575169 -905121079 -1342177347 -67109889</internalNodes>
      <leafValues>
        -7.2601681947708130e-01 4.5373857021331787e-01</leafValues></_>
    <_>
      <internalNodes>
        0 -1 4015 -3211265 2130624895 1985141215 -1302670114 1487630159
        -1174185814 -91521049 -164462794</internalNodes>
      <leafValues>
        -8.7898552417755127e-01 3.3475998044013977e-01</leafValues></_>
    <_>
      <internalNodes>
        0 -1 6940 -270532620 164555773 -1215039490 -276114532 -175148035
        1940573935 -17826819 -1078288951</internalNodes>
      <leafValues>
        -9.4379490613937378e-01 3.4119975566864014e-01</leafValues></_></weakClassifiers></stage8>
</opencv_storage>
