<?xml version="1.0"?>
<opencv_storage>
<stage4>
  <maxWeakCount>9</maxWeakCount>
  <stageThreshold>-3.7855277061462402e+00</stageThreshold>
  <weakClassifiers>
    <_>
      <internalNodes>
        0 -1 3261 -5169 -67110945 -491533921 -218432673 -44425465
        -246948337 -76809345 -228328449</internalNodes>
      <leafValues>
        -7.6994562149047852e-01 4.3798708915710449e-01</leafValues></_>
    <_>
      <internalNodes>
        0 -1 7545 -142621997 1373045794 1930269715 1366753299 -508569617
        1201094795 -81798421 1476380379</internalNodes>
      <leafValues>
        -6.5746879577636719e-01 5.4824781417846680e-01</leafValues></_>
    <_>
      <internalNodes>
        0 -1 5515 -491789682 1664017071 1086529546 1942874883 581345418
        536887882 -1549041014 1133507503</internalNodes>
      <leafValues>
        -6.6082447767257690e-01 4.8478046059608459e-01</leafValues></_>
    <_>
      <internalNodes>
        0 -1 6857 -1296351725 -2098195 1615312373 -6294561 1067187198
        -72359191 1271913725 -541073923</internalNodes>
      <leafValues>
        -7.0296907424926758e-01 4.7055912017822266e-01</leafValues></_>
    <_>
      <internalNodes>
        0 -1 7747 -842549249 -707791361 -1997762593 -573047841
        -371214349 -642170225 1652795351 2013262847</internalNodes>
      <leafValues>
        -6.1291003227233887e-01 6.2861961126327515e-01</leafValues></_>
    <_>
      <internalNodes>
        0 -1 7747 -842532865 -707791361 -1997762593 -573049889
        -371214349 -642170225 1652795351 2013262847</internalNodes>
      <leafValues>
        -6.0746663808822632e-01 6.3702523708343506e-01</leafValues></_>
    <_>
      <internalNodes>
        0 -1 7747 -305137665 -706740737 -1930432513 -570427393
        -301991937 -570556417 -420485121 -1</internalNodes>
      <leafValues>
        -6.4426320791244507e-01 7.0057922601699829e-01</leafValues></_>
    <_>
      <internalNodes>
        0 -1 6122 -83886273 840947487 270474387 807030815 -70255649
        -83939953 -270534145 -85984273</internalNodes>
      <leafValues>
        -7.3873603343963623e-01 4.2853990197181702e-01</leafValues></_>
    <_>
      <internalNodes>
        0 -1 8078 -570952329 -841031421 -1991326499 -974235979
        -929236553 -1964318687 -1511402049 -35653653</internalNodes>
      <leafValues>
        -7.1007692813873291e-01 5.0276809930801392e-01</leafValues></_></weakClassifiers></stage4>
</opencv_storage>
