<?xml version="1.0"?>
<opencv_storage>
<stage9>
  <maxWeakCount>10</maxWeakCount>
  <stageThreshold>-3.1106820106506348e+00</stageThreshold>
  <weakClassifiers>
    <_>
      <internalNodes>
        0 -1 3085 -276257 -11414593 -717204649 -143393821 -78511457
        -128951805 -79459573 -12059801</internalNodes>
      <leafValues>
        -6.0258668661117554e-01 4.9439528584480286e-01</leafValues></_>
    <_>
      <internalNodes>
        0 -1 5612 -2642966 1073255166 826541628 1071389326 2141467304
        2077241990 -3294482 2146958335</internalNodes>
      <leafValues>
        -6.3565355539321899e-01 4.1125595569610596e-01</leafValues></_>
    <_>
      <internalNodes>
        0 -1 3286 -144707334 1607980543 -792071937 -76295109 -74459905
        -5131036 -575277317 -170830790</internalNodes>
      <leafValues>
        -5.7670599222183228e-01 4.6011522412300110e-01</leafValues></_>
    <_>
      <internalNodes>
        0 -1 8638 -269484053 142780074 1340009471 -2054177821 -552141077
        -2056725616 -69469185 -536871425</internalNodes>
      <leafValues>
        -5.2889466285705566e-01 5.2439105510711670e-01</leafValues></_>
    <_>
      <internalNodes>
        0 -1 8070 -58725891 -579482512 -285343489 -444763023 -1663259137
        -847383177 -1375753477 -1350569029</internalNodes>
      <leafValues>
        -5.4844725131988525e-01 5.6897109746932983e-01</leafValues></_>
    <_>
      <internalNodes>
        0 -1 7324 -320887297 -36837889 -1006061093 -38039045 -301991945
        -1043859586 -287638549 -805307397</internalNodes>
      <leafValues>
        -6.0375654697418213e-01 5.0014173984527588e-01</leafValues></_>
    <_>
      <internalNodes>
        0 -1 6095 -204476790 -205524109 1652810528 -1336935701
        -167088093 1074780267 -509890166 2011168719</internalNodes>
      <leafValues>
        -7.2804248332977295e-01 2.8944045305252075e-01</leafValues></_>
    <_>
      <internalNodes>
        0 -1 4565 -1885099085 -134761037 -1355218433 -2127395
        -1943236694 -1883534430 782863355 -612430477</internalNodes>
      <leafValues>
        -5.8792251348495483e-01 4.9398550391197205e-01</leafValues></_>
    <_>
      <internalNodes>
        0 -1 8351 -15122 -1281835270 -1939348808 960231771 1521411823
        1060364475 719799000 -69216293</internalNodes>
      <leafValues>
        -6.3386100530624390e-01 4.2371791601181030e-01</leafValues></_>
    <_>
      <internalNodes>
        0 -1 7374 -69217417 788518111 -1072332929 215929820 -608437401
        -17127221 -74458137 -318901260</internalNodes>
      <leafValues>
        -7.8248947858810425e-01 2.9745039343833923e-01</leafValues></_></weakClassifiers></stage9>
</opencv_storage>
