<?xml version="1.0"?>
<opencv_storage>
<stage13>
  <maxWeakCount>14</maxWeakCount>
  <stageThreshold>-4.8512115478515625e+00</stageThreshold>
  <weakClassifiers>
    <_>
      <internalNodes>
        0 -1 1571 -805306377 -210505741 1333655935 -2106913 1198901234
        -193892896 1274789887 -9442049</internalNodes>
      <leafValues>
        -6.3805103302001953e-01 3.4278845787048340e-01</leafValues></_>
    <_>
      <internalNodes>
        0 -1 6508 2145353727 -118494998 991423740 -590419350 -68687361
        2001053886 -67240451 -657979143</internalNodes>
      <leafValues>
        -6.7032307386398315e-01 3.2457676529884338e-01</leafValues></_>
    <_>
      <internalNodes>
        0 -1 51 1097179375 -2628129 2006710239 -136317065 -659948549
        -4478533 -4468737 -170798409</internalNodes>
      <leafValues>
        -4.6575599908828735e-01 5.2041381597518921e-01</leafValues></_>
    <_>
      <internalNodes>
        0 -1 4590 -1557814350 -854690912 -786966539 -7483948 222789811
        -846225535 -1786273357 -37749757</internalNodes>
      <leafValues>
        -5.8077573776245117e-01 4.0237301588058472e-01</leafValues></_>
    <_>
      <internalNodes>
        0 -1 2623 -1946160139 -67122689 -6957099 -1025 -607396867
        -67113011 -1998592007 -606080043</internalNodes>
      <leafValues>
        -5.2091944217681885e-01 5.1056981086730957e-01</leafValues></_>
    <_>
      <internalNodes>
        0 -1 8632 -1281 -603986210 -2126397220 -538983266 162414837
        22931619 1569623272 -771753761</internalNodes>
      <leafValues>
        -5.4701149463653564e-01 5.0609397888183594e-01</leafValues></_>
    <_>
      <internalNodes>
        0 -1 7527 -16785409 -260579497 -92340833 276741663 -274761409
        -98042993 -287309825 -55575809</internalNodes>
      <leafValues>
        -6.2600553035736084e-01 3.4194198250770569e-01</leafValues></_>
    <_>
      <internalNodes>
        0 -1 7291 -2113613 -2146307 1976251703 -2097187 -440009737
        -1998225198 -34997257 -1041</internalNodes>
      <leafValues>
        -5.7203030586242676e-01 4.4642418622970581e-01</leafValues></_>
    <_>
      <internalNodes>
        0 -1 6329 -134764617 -182989 -778848617 -136341626 -1146645841
        -1145103725 -204096577 -134273137</internalNodes>
      <leafValues>
        -6.1120533943176270e-01 3.8977074623107910e-01</leafValues></_>
    <_>
      <internalNodes>
        0 -1 8298 -134222038 2064307978 1499173424 -215748320 1247004303
        1242155914 -537133073 -403967121</internalNodes>
      <leafValues>
        -5.9985977411270142e-01 4.7886291146278381e-01</leafValues></_>
    <_>
      <internalNodes>
        0 -1 5104 2019517623 -103149547 -8266345 1976771591 -53298182
        -270357570 -70582341 1073687483</internalNodes>
      <leafValues>
        -7.6795434951782227e-01 3.3288076519966125e-01</leafValues></_>
    <_>
      <internalNodes>
        0 -1 6800 -101396430 -35975046 -515764109 -103065326 -325083973
        -188759976 -659836421 -1064600965</internalNodes>
      <leafValues>
        -9.2075467109680176e-01 1.8318176269531250e-01</leafValues></_>
    <_>
      <internalNodes>
        0 -1 7642 -68753248 -1085476024 -1525672184 1069225378
        1937440944 178405824 1938498616 2143803035</internalNodes>
      <leafValues>
        -9.2940950393676758e-01 3.3969491720199585e-01</leafValues></_>
    <_>
      <internalNodes>
        0 -1 4025 2013245439 1607954783 -913841825 -262219522 1367956811
        -96925671 1535851239 -231572650</internalNodes>
      <leafValues>
        -9.7533512115478516e-01 3.6689275503158569e-01</leafValues></_></weakClassifiers></stage13>
</opencv_storage>
