<?xml version="1.0"?>
<opencv_storage>
<stage10>
  <maxWeakCount>15</maxWeakCount>
  <stageThreshold>-6.1216874122619629e+00</stageThreshold>
  <weakClassifiers>
    <_>
      <internalNodes>
        0 -1 6306 -34226763 -33704523 1431697333 -35283787 -102105089
        -33844043 -102367553 -49217</internalNodes>
      <leafValues>
        -6.3688576221466064e-01 3.9938870072364807e-01</leafValues></_>
    <_>
      <internalNodes>
        0 -1 3226 -218644337 -790635553 -1738573049 -137626637
        1987310163 1078979791 -159384737 -185073729</internalNodes>
      <leafValues>
        -6.2891346216201782e-01 4.1270649433135986e-01</leafValues></_>
    <_>
      <internalNodes>
        0 -1 7821 -1025 -17926658 -174727681 -23003268 -70518785
        -340067365 -137366539 -2064343820</internalNodes>
      <leafValues>
        -7.6060926914215088e-01 3.1797334551811218e-01</leafValues></_>
    <_>
      <internalNodes>
        0 -1 6675 -713561793 -43188206 1140857080 -582406085 -817910117
        -106091826 -74729253 -104219717</internalNodes>
      <leafValues>
        -5.8972096443176270e-01 4.6983373165130615e-01</leafValues></_>
    <_>
      <internalNodes>
        0 -1 6675 -713561793 -43450350 -1006626568 -582406085 -817910117
        -106091826 -74729253 -238437445</internalNodes>
      <leafValues>
        -6.0765331983566284e-01 4.4714409112930298e-01</leafValues></_>
    <_>
      <internalNodes>
        0 -1 8642 -536872961 -671107329 214576315 -805306625 232777727
        -1375863379 234194393 -570427393</internalNodes>
      <leafValues>
        -5.5773818492889404e-01 5.6994700431823730e-01</leafValues></_>
    <_>
      <internalNodes>
        0 -1 7770 -993003521 -704645153 -996343809 -134219781 -396495617
        -862258514 -474221825 -841221141</internalNodes>
      <leafValues>
        -6.5864390134811401e-01 4.8347631096839905e-01</leafValues></_>
    <_>
      <internalNodes>
        0 -1 7322 -83942725 1941930673 -2116040481 -2125857 -1346638337
        -817926021 -927216385 -814219505</internalNodes>
      <leafValues>
        -6.4394944906234741e-01 3.5359513759613037e-01</leafValues></_>
    <_>
      <internalNodes>
        0 -1 8623 -1 -3152142 224493780 -842063106 136041916 -1924539257
        233687196 -572529153</internalNodes>
      <leafValues>
        -6.1916136741638184e-01 4.5037722587585449e-01</leafValues></_>
    <_>
      <internalNodes>
        0 -1 7304 -855638529 100260311 -1374486593 -805309509 -355535877
        -890523717 1654812983 2075390883</internalNodes>
      <leafValues>
        -7.2617691755294800e-01 2.7077931165695190e-01</leafValues></_>
    <_>
      <internalNodes>
        0 -1 4436 -81343862 -86321718 1412347393 -1325480225 1879241472
        69370779 1686497083 2013265903</internalNodes>
      <leafValues>
        -8.1641900539398193e-01 2.2272469103336334e-01</leafValues></_>
    <_>
      <internalNodes>
        0 -1 7770 -993069185 -721422625 1150353407 1476392955 -531241737
        -997657942 -474746121 -975965213</internalNodes>
      <leafValues>
        -8.6428982019424438e-01 2.6359966397285461e-01</leafValues></_>
    <_>
      <internalNodes>
        0 -1 7998 -9179478 1924794424 1108676895 -91129704 1210223307
        167776778 236186575 2064874491</internalNodes>
      <leafValues>
        -8.6864137649536133e-01 3.4247773885726929e-01</leafValues></_>
    <_>
      <internalNodes>
        0 -1 3601 -240663805 1940376519 1109983298 -472915281
        -1987653622 1617881107 1097031682 1665655043</internalNodes>
      <leafValues>
        -9.5651143789291382e-01 3.4681934118270874e-01</leafValues></_>
    <_>
      <internalNodes>
        0 -1 7073 -489698802 38478855 544904 1078411914 1402571528
        1078404100 -770998065 1934621199</internalNodes>
      <leafValues>
        -9.8285400867462158e-01 4.2953249812126160e-01</leafValues></_></weakClassifiers></stage10>
</opencv_storage>
