<?xml version="1.0"?>
<opencv_storage>
<cascade>
  <stageType>BOOST</stageType>
  <featureType>HAAR</featureType>
  <height>30</height>
  <width>20</width>
  <stageParams>
    <boostType>GAB</boostType>
    <minHitRate>9.9500000476837158e-01</minHitRate>
    <maxFalseAlarm>5.0000000000000000e-01</maxFalseAlarm>
    <weightTrimRate>9.4999999999999996e-01</weightTrimRate>
    <maxDepth>1</maxDepth>
    <maxWeakCount>100</maxWeakCount></stageParams>
  <featureParams>
    <maxCatCount>0</maxCatCount>
    <featSize>1</featSize>
    <mode>BASIC</mode></featureParams>
  <stageNum>14</stageNum>
  <stages>
    <!-- stage 0 -->
    <_>
      <maxWeakCount>4</maxWeakCount>
      <stageThreshold>-1.7326836585998535e+00</stageThreshold>
      <weakClassifiers>
        <_>
          <internalNodes>
            0 -1 6 -1.1840251088142395e-01</internalNodes>
          <leafValues>
            6.7109829187393188e-01 -7.0478171110153198e-01</leafValues></_>
        <_>
          <internalNodes>
            0 -1 47 6.6093562054447830e-05</internalNodes>
          <leafValues>
            -8.8205444812774658e-01 3.5338965058326721e-01</leafValues></_>
        <_>
          <internalNodes>
            0 -1 104 -4.2133502662181854e-02</internalNodes>
          <leafValues>
            5.2536612749099731e-01 -5.8993995189666748e-01</leafValues></_>
        <_>
          <internalNodes>
            0 -1 70 -2.8636987553909421e-04</internalNodes>
          <leafValues>
            3.7022718787193298e-01 -7.9135167598724365e-01</leafValues></_></weakClassifiers></_>
    <!-- stage 1 -->
    <_>
      <maxWeakCount>6</maxWeakCount>
      <stageThreshold>-1.6831220388412476e+00</stageThreshold>
      <weakClassifiers>
        <_>
          <internalNodes>
            0 -1 94 -1.1638941032288130e-05</internalNodes>
          <leafValues>
            3.7071651220321655e-01 -8.5567420721054077e-01</leafValues></_>
        <_>
          <internalNodes>
            0 -1 143 1.1111027002334595e-01</internalNodes>
          <leafValues>
            -6.3655555248260498e-01 6.4927405118942261e-01</leafValues></_>
        <_>
          <internalNodes>
            0 -1 149 -1.0849243153643329e-05</internalNodes>
          <leafValues>
            4.8850932717323303e-01 -6.8995201587677002e-01</leafValues></_>
        <_>
          <internalNodes>
            0 -1 53 -1.7378676682710648e-02</internalNodes>
          <leafValues>
            6.6730284690856934e-01 -3.7398955225944519e-01</leafValues></_>
        <_>
          <internalNodes>
            0 -1 72 -2.9046321287751198e-05</internalNodes>
          <leafValues>
            4.0195733308792114e-01 -5.3087455034255981e-01</leafValues></_>
        <_>
          <internalNodes>
            0 -1 50 -1.4329319819808006e-03</internalNodes>
          <leafValues>
            -9.1486549377441406e-01 2.2546248137950897e-01</leafValues></_></weakClassifiers></_>
    <!-- stage 2 -->
    <_>
      <maxWeakCount>8</maxWeakCount>
      <stageThreshold>-1.8361042737960815e+00</stageThreshold>
      <weakClassifiers>
        <_>
          <internalNodes>
            0 -1 2 -8.3914160728454590e-02</internalNodes>
          <leafValues>
            6.3869625329971313e-01 -5.8358412981033325e-01</leafValues></_>
        <_>
          <internalNodes>
            0 -1 152 -1.2239886447787285e-02</internalNodes>
          <leafValues>
            6.2205147743225098e-01 -4.6739524602890015e-01</leafValues></_>
        <_>
          <internalNodes>
            0 -1 70 -2.9163388535380363e-04</internalNodes>
          <leafValues>
            3.1069013476371765e-01 -7.2507810592651367e-01</leafValues></_>
        <_>
          <internalNodes>
            0 -1 161 3.1436216086149216e-02</internalNodes>
          <leafValues>
            -4.3166464567184448e-01 4.7739630937576294e-01</leafValues></_>
        <_>
          <internalNodes>
            0 -1 121 2.2822681348770857e-03</internalNodes>
          <leafValues>
            2.7139797806739807e-01 -7.8289794921875000e-01</leafValues></_>
        <_>
          <internalNodes>
            0 -1 12 -2.9652779921889305e-03</internalNodes>
          <leafValues>
            5.7928532361984253e-01 -3.6723652482032776e-01</leafValues></_>
        <_>
          <internalNodes>
            0 -1 34 1.6890891129150987e-04</internalNodes>
          <leafValues>
            -7.0493477582931519e-01 2.9368224740028381e-01</leafValues></_>
        <_>
          <internalNodes>
            0 -1 123 -5.8728561270982027e-04</internalNodes>
          <leafValues>
            -8.7597793340682983e-01 1.3662286102771759e-01</leafValues></_></weakClassifiers></_>
    <!-- stage 3 -->
    <_>
      <maxWeakCount>9</maxWeakCount>
      <stageThreshold>-1.3448605537414551e+00</stageThreshold>
      <weakClassifiers>
        <_>
          <internalNodes>
            0 -1 5 -1.6250930726528168e-01</internalNodes>
          <leafValues>
            5.5189138650894165e-01 -5.8174902200698853e-01</leafValues></_>
        <_>
          <internalNodes>
            0 -1 158 7.2985021397471428e-03</internalNodes>
          <leafValues>
            -4.6200731396675110e-01 4.9145919084548950e-01</leafValues></_>
        <_>
          <internalNodes>
            0 -1 144 -5.5575603619217873e-03</internalNodes>
          <leafValues>
            6.1566919088363647e-01 -3.2319328188896179e-01</leafValues></_>
        <_>
          <internalNodes>
            0 -1 42 -3.1048327684402466e-02</internalNodes>
          <leafValues>
            -8.7972855567932129e-01 1.8186622858047485e-01</leafValues></_>
        <_>
          <internalNodes>
            0 -1 62 2.8980453498661518e-03</internalNodes>
          <leafValues>
            2.1372762322425842e-01 -8.6866229772567749e-01</leafValues></_>
        <_>
          <internalNodes>
            0 -1 32 2.5860650930553675e-03</internalNodes>
          <leafValues>
            -7.3717135190963745e-01 1.6155101358890533e-01</leafValues></_>
        <_>
          <internalNodes>
            0 -1 11 -4.7116889618337154e-03</internalNodes>
          <leafValues>
            5.7184541225433350e-01 -2.7732643485069275e-01</leafValues></_>
        <_>
          <internalNodes>
            0 -1 29 -3.9784662425518036e-02</internalNodes>
          <leafValues>
            6.3796049356460571e-01 -1.8678744137287140e-01</leafValues></_>
        <_>
          <internalNodes>
            0 -1 106 -3.4644111292436719e-04</internalNodes>
          <leafValues>
            -8.3075362443923950e-01 1.6227616369724274e-01</leafValues></_></weakClassifiers></_>
    <!-- stage 4 -->
    <_>
      <maxWeakCount>9</maxWeakCount>
      <stageThreshold>-1.4114949703216553e+00</stageThreshold>
      <weakClassifiers>
        <_>
          <internalNodes>
            0 -1 1 -2.8707522153854370e-01</internalNodes>
          <leafValues>
            3.9511683583259583e-01 -6.1534845829010010e-01</leafValues></_>
        <_>
          <internalNodes>
            0 -1 126 7.5034033507108688e-03</internalNodes>
          <leafValues>
            -3.9550077915191650e-01 5.4087680578231812e-01</leafValues></_>
        <_>
          <internalNodes>
            0 -1 162 -5.0728670321404934e-03</internalNodes>
          <leafValues>
            5.3027099370956421e-01 -3.1561833620071411e-01</leafValues></_>
        <_>
          <internalNodes>
            0 -1 38 -1.6380500048398972e-02</internalNodes>
          <leafValues>
            -8.4503120183944702e-01 1.5942782163619995e-01</leafValues></_>
        <_>
          <internalNodes>
            0 -1 89 2.4879664124455303e-05</internalNodes>
          <leafValues>
            -6.0521852970123291e-01 2.8158661723136902e-01</leafValues></_>
        <_>
          <internalNodes>
            0 -1 53 -1.9540311768651009e-02</internalNodes>
          <leafValues>
            5.4046142101287842e-01 -3.1777819991111755e-01</leafValues></_>
        <_>
          <internalNodes>
            0 -1 45 -9.2625617980957031e-03</internalNodes>
          <leafValues>
            -8.8969719409942627e-01 2.0461598038673401e-01</leafValues></_>
        <_>
          <internalNodes>
            0 -1 93 -1.3737611006945372e-03</internalNodes>
          <leafValues>
            -9.0128564834594727e-01 1.2178235501050949e-01</leafValues></_>
        <_>
          <internalNodes>
            0 -1 113 -5.8007612824440002e-03</internalNodes>
          <leafValues>
            5.4788488149642944e-01 -2.8623813390731812e-01</leafValues></_></weakClassifiers></_>
    <!-- stage 5 -->
    <_>
      <maxWeakCount>11</maxWeakCount>
      <stageThreshold>-1.6717611551284790e+00</stageThreshold>
      <weakClassifiers>
        <_>
          <internalNodes>
            0 -1 17 -2.6922643184661865e-01</internalNodes>
          <leafValues>
            2.8425821661949158e-01 -6.3661533594131470e-01</leafValues></_>
        <_>
          <internalNodes>
            0 -1 51 -1.3841395266354084e-03</internalNodes>
          <leafValues>
            2.8331831097602844e-01 -7.0304244756698608e-01</leafValues></_>
        <_>
          <internalNodes>
            0 -1 0 -1.3425210490822792e-02</internalNodes>
          <leafValues>
            4.9031117558479309e-01 -3.2180976867675781e-01</leafValues></_>
        <_>
          <internalNodes>
            0 -1 156 -8.5188634693622589e-03</internalNodes>
          <leafValues>
            4.2781838774681091e-01 -3.4908205270767212e-01</leafValues></_>
        <_>
          <internalNodes>
            0 -1 141 -1.2955031706951559e-05</internalNodes>
          <leafValues>
            1.9551672041416168e-01 -6.2507134675979614e-01</leafValues></_>
        <_>
          <internalNodes>
            0 -1 85 2.6700748130679131e-03</internalNodes>
          <leafValues>
            1.3804917037487030e-01 -9.0614271163940430e-01</leafValues></_>
        <_>
          <internalNodes>
            0 -1 14 -6.9976532831788063e-03</internalNodes>
          <leafValues>
            4.9566963315010071e-01 -3.2441189885139465e-01</leafValues></_>
        <_>
          <internalNodes>
            0 -1 21 -8.3452872931957245e-03</internalNodes>
          <leafValues>
            4.8250147700309753e-01 -2.6492571830749512e-01</leafValues></_>
        <_>
          <internalNodes>
            0 -1 129 -2.0092097111046314e-04</internalNodes>
          <leafValues>
            3.1929713487625122e-01 -4.2267614603042603e-01</leafValues></_>
        <_>
          <internalNodes>
            0 -1 31 -2.7004513889551163e-02</internalNodes>
          <leafValues>
            -8.8734942674636841e-01 1.3498269021511078e-01</leafValues></_>
        <_>
          <internalNodes>
            0 -1 64 -1.1437530629336834e-03</internalNodes>
          <leafValues>
            -9.0927517414093018e-01 1.0585967451334000e-01</leafValues></_></weakClassifiers></_>
    <!-- stage 6 -->
    <_>
      <maxWeakCount>11</maxWeakCount>
      <stageThreshold>-1.6343524456024170e+00</stageThreshold>
      <weakClassifiers>
        <_>
          <internalNodes>
            0 -1 142 5.2701793611049652e-02</internalNodes>
          <leafValues>
            -6.7014533281326294e-01 2.4275061488151550e-01</leafValues></_>
        <_>
          <internalNodes>
            0 -1 155 1.6409263480454683e-03</internalNodes>
          <leafValues>
            -3.6691340804100037e-01 5.3057861328125000e-01</leafValues></_>
        <_>
          <internalNodes>
            0 -1 9 -6.0425072908401489e-02</internalNodes>
          <leafValues>
            4.4193965196609497e-01 -3.7890261411666870e-01</leafValues></_>
        <_>
          <internalNodes>
            0 -1 135 2.9142969287931919e-03</internalNodes>
          <leafValues>
            -2.2925309836864471e-01 6.1560469865798950e-01</leafValues></_>
        <_>
          <internalNodes>
            0 -1 88 4.1552386246621609e-03</internalNodes>
          <leafValues>
            1.5381798148155212e-01 -8.3001148700714111e-01</leafValues></_>
        <_>
          <internalNodes>
            0 -1 150 -2.2759730200050399e-05</internalNodes>
          <leafValues>
            2.2816683351993561e-01 -5.2420991659164429e-01</leafValues></_>
        <_>
          <internalNodes>
            0 -1 124 1.7779862973839045e-03</internalNodes>
          <leafValues>
            1.3929915428161621e-01 -8.4177911281585693e-01</leafValues></_>
        <_>
          <internalNodes>
            0 -1 101 -4.2811036109924316e-04</internalNodes>
          <leafValues>
            3.6369949579238892e-01 -3.3000707626342773e-01</leafValues></_>
        <_>
          <internalNodes>
            0 -1 54 -3.0494827777147293e-02</internalNodes>
          <leafValues>
            4.3610653281211853e-01 -2.8127276897430420e-01</leafValues></_>
        <_>
          <internalNodes>
            0 -1 90 -8.1508874427527189e-04</internalNodes>
          <leafValues>
            -7.9827350378036499e-01 1.5931965410709381e-01</leafValues></_>
        <_>
          <internalNodes>
            0 -1 10 -5.2925720810890198e-03</internalNodes>
          <leafValues>
            5.7213979959487915e-01 -2.1898098289966583e-01</leafValues></_></weakClassifiers></_>
    <!-- stage 7 -->
    <_>
      <maxWeakCount>12</maxWeakCount>
      <stageThreshold>-1.5475645065307617e+00</stageThreshold>
      <weakClassifiers>
        <_>
          <internalNodes>
            0 -1 164 -2.2922851145267487e-02</internalNodes>
          <leafValues>
            2.9967948794364929e-01 -5.4976743459701538e-01</leafValues></_>
        <_>
          <internalNodes>
            0 -1 4 -2.0485661923885345e-02</internalNodes>
          <leafValues>
            5.1423668861389160e-01 -3.1127667427062988e-01</leafValues></_>
        <_>
          <internalNodes>
            0 -1 110 -1.1943008757953066e-05</internalNodes>
          <leafValues>
            2.5417888164520264e-01 -5.7999783754348755e-01</leafValues></_>
        <_>
          <internalNodes>
            0 -1 127 -1.0892122190853115e-05</internalNodes>
          <leafValues>
            2.9309824109077454e-01 -4.1806146502494812e-01</leafValues></_>
        <_>
          <internalNodes>
            0 -1 137 2.0658057183027267e-02</internalNodes>
          <leafValues>
            1.5153066813945770e-01 -8.1902360916137695e-01</leafValues></_>
        <_>
          <internalNodes>
            0 -1 145 -3.9283707737922668e-03</internalNodes>
          <leafValues>
            4.4762885570526123e-01 -2.6707160472869873e-01</leafValues></_>
        <_>
          <internalNodes>
            0 -1 28 1.2749681482091546e-03</internalNodes>
          <leafValues>
            -7.2475641965866089e-01 1.5960723161697388e-01</leafValues></_>
        <_>
          <internalNodes>
            0 -1 60 -6.2132012099027634e-03</internalNodes>
          <leafValues>
            -8.7276756763458252e-01 1.0062211751937866e-01</leafValues></_>
        <_>
          <internalNodes>
            0 -1 19 -5.2446210756897926e-03</internalNodes>
          <leafValues>
            4.3708130717277527e-01 -2.4813580513000488e-01</leafValues></_>
        <_>
          <internalNodes>
            0 -1 24 5.1402538083493710e-03</internalNodes>
          <leafValues>
            -1.7803995311260223e-01 6.0369670391082764e-01</leafValues></_>
        <_>
          <internalNodes>
            0 -1 66 -2.7504966128617525e-03</internalNodes>
          <leafValues>
            -8.3346122503280640e-01 1.5688452124595642e-01</leafValues></_>
        <_>
          <internalNodes>
            0 -1 25 -2.8878706507384777e-03</internalNodes>
          <leafValues>
            4.4457238912582397e-01 -2.4907542765140533e-01</leafValues></_></weakClassifiers></_>
    <!-- stage 8 -->
    <_>
      <maxWeakCount>14</maxWeakCount>
      <stageThreshold>-1.5759942531585693e+00</stageThreshold>
      <weakClassifiers>
        <_>
          <internalNodes>
            0 -1 8 -9.1583743691444397e-02</internalNodes>
          <leafValues>
            4.7673955559730530e-01 -4.7180622816085815e-01</leafValues></_>
        <_>
          <internalNodes>
            0 -1 112 2.2860188037157059e-03</internalNodes>
          <leafValues>
            -3.3708968758583069e-01 5.0383538007736206e-01</leafValues></_>
        <_>
          <internalNodes>
            0 -1 118 -2.7006831951439381e-03</internalNodes>
          <leafValues>
            4.7457680106163025e-01 -2.7080896496772766e-01</leafValues></_>
        <_>
          <internalNodes>
            0 -1 87 6.0158502310514450e-04</internalNodes>
          <leafValues>
            1.7378719151020050e-01 -8.1184214353561401e-01</leafValues></_>
        <_>
          <internalNodes>
            0 -1 100 -4.4189058244228363e-02</internalNodes>
          <leafValues>
            2.5295141339302063e-01 -4.2476615309715271e-01</leafValues></_>
        <_>
          <internalNodes>
            0 -1 109 -1.1871637980220839e-05</internalNodes>
          <leafValues>
            1.9956693053245544e-01 -5.4897004365921021e-01</leafValues></_>
        <_>
          <internalNodes>
            0 -1 37 -2.9531107284128666e-03</internalNodes>
          <leafValues>
            4.5431423187255859e-01 -2.3072330653667450e-01</leafValues></_>
        <_>
          <internalNodes>
            0 -1 97 1.1872664093971252e-02</internalNodes>
          <leafValues>
            1.0580779612064362e-01 -9.2916333675384521e-01</leafValues></_>
        <_>
          <internalNodes>
            0 -1 40 1.2907853815704584e-03</internalNodes>
          <leafValues>
            -2.4547162652015686e-01 4.7572180628776550e-01</leafValues></_>
        <_>
          <internalNodes>
            0 -1 63 4.8860874958336353e-03</internalNodes>
          <leafValues>
            1.3809478282928467e-01 -9.2869615554809570e-01</leafValues></_>
        <_>
          <internalNodes>
            0 -1 48 -1.5872990479692817e-03</internalNodes>
          <leafValues>
            -7.7481633424758911e-01 8.6366474628448486e-02</leafValues></_>
        <_>
          <internalNodes>
            0 -1 76 -3.8695670664310455e-03</internalNodes>
          <leafValues>
            5.7362520694732666e-01 -1.9330108165740967e-01</leafValues></_>
        <_>
          <internalNodes>
            0 -1 78 2.4113343097269535e-03</internalNodes>
          <leafValues>
            -2.0034243166446686e-01 4.8265734314918518e-01</leafValues></_>
        <_>
          <internalNodes>
            0 -1 34 3.2124633435159922e-04</internalNodes>
          <leafValues>
            -6.0307860374450684e-01 1.6551147401332855e-01</leafValues></_></weakClassifiers></_>
    <!-- stage 9 -->
    <_>
      <maxWeakCount>16</maxWeakCount>
      <stageThreshold>-1.7048165798187256e+00</stageThreshold>
      <weakClassifiers>
        <_>
          <internalNodes>
            0 -1 30 9.5349363982677460e-03</internalNodes>
          <leafValues>
            -4.7247642278671265e-01 3.6025062203407288e-01</leafValues></_>
        <_>
          <internalNodes>
            0 -1 163 6.3256672583520412e-03</internalNodes>
          <leafValues>
            -3.0440396070480347e-01 4.3767148256301880e-01</leafValues></_>
        <_>
          <internalNodes>
            0 -1 111 -2.1186131561989896e-05</internalNodes>
          <leafValues>
            2.4226701259613037e-01 -4.8258700966835022e-01</leafValues></_>
        <_>
          <internalNodes>
            0 -1 114 5.4020568728446960e-02</internalNodes>
          <leafValues>
            -3.7546989321708679e-01 2.7969285845756531e-01</leafValues></_>
        <_>
          <internalNodes>
            0 -1 140 -1.8595653818920255e-04</internalNodes>
          <leafValues>
            -7.9222756624221802e-01 1.4487200975418091e-01</leafValues></_>
        <_>
          <internalNodes>
            0 -1 44 5.9273809893056750e-04</internalNodes>
          <leafValues>
            -2.9221066832542419e-01 3.5256233811378479e-01</leafValues></_>
        <_>
          <internalNodes>
            0 -1 116 -1.5432273969054222e-02</internalNodes>
          <leafValues>
            -8.1481856107711792e-01 1.2077851593494415e-01</leafValues></_>
        <_>
          <internalNodes>
            0 -1 138 7.2982911660801619e-05</internalNodes>
          <leafValues>
            -4.5777371525764465e-01 2.0172864198684692e-01</leafValues></_>
        <_>
          <internalNodes>
            0 -1 26 1.2909327633678913e-02</internalNodes>
          <leafValues>
            1.6298747062683105e-01 -6.0594230890274048e-01</leafValues></_>
        <_>
          <internalNodes>
            0 -1 58 -1.3809786178171635e-02</internalNodes>
          <leafValues>
            -8.6694902181625366e-01 7.5842842459678650e-02</leafValues></_>
        <_>
          <internalNodes>
            0 -1 120 -4.0495482971891761e-04</internalNodes>
          <leafValues>
            3.9313781261444092e-01 -2.5194346904754639e-01</leafValues></_>
        <_>
          <internalNodes>
            0 -1 16 -2.3808353580534458e-03</internalNodes>
          <leafValues>
            3.8190272450447083e-01 -2.3510493338108063e-01</leafValues></_>
        <_>
          <internalNodes>
            0 -1 20 -8.5031818598508835e-03</internalNodes>
          <leafValues>
            4.9904221296310425e-01 -1.8375204503536224e-01</leafValues></_>
        <_>
          <internalNodes>
            0 -1 91 -7.4189109727740288e-04</internalNodes>
          <leafValues>
            -7.1464216709136963e-01 1.2920854985713959e-01</leafValues></_>
        <_>
          <internalNodes>
            0 -1 117 2.5127055123448372e-03</internalNodes>
          <leafValues>
            -1.8494905531406403e-01 5.0193917751312256e-01</leafValues></_>
        <_>
          <internalNodes>
            0 -1 128 1.5311960596591234e-03</internalNodes>
          <leafValues>
            -4.5064947009086609e-01 2.1937094628810883e-01</leafValues></_></weakClassifiers></_>
    <!-- stage 10 -->
    <_>
      <maxWeakCount>16</maxWeakCount>
      <stageThreshold>-1.5079346895217896e+00</stageThreshold>
      <weakClassifiers>
        <_>
          <internalNodes>
            0 -1 73 -2.1690241992473602e-02</internalNodes>
          <leafValues>
            2.9962778091430664e-01 -4.8637014627456665e-01</leafValues></_>
        <_>
          <internalNodes>
            0 -1 165 5.2841671276837587e-04</internalNodes>
          <leafValues>
            -4.6651658415794373e-01 2.4017547070980072e-01</leafValues></_>
        <_>
          <internalNodes>
            0 -1 108 2.4169861717382446e-05</internalNodes>
          <leafValues>
            -4.9833795428276062e-01 2.1109730005264282e-01</leafValues></_>
        <_>
          <internalNodes>
            0 -1 107 7.3893112130463123e-04</internalNodes>
          <leafValues>
            1.3842155039310455e-01 -8.6786496639251709e-01</leafValues></_>
        <_>
          <internalNodes>
            0 -1 149 -1.0849243153643329e-05</internalNodes>
          <leafValues>
            1.8466481566429138e-01 -5.0781339406967163e-01</leafValues></_>
        <_>
          <internalNodes>
            0 -1 3 7.0729688741266727e-03</internalNodes>
          <leafValues>
            -2.7192249894142151e-01 3.8191503286361694e-01</leafValues></_>
        <_>
          <internalNodes>
            0 -1 61 1.3497357722371817e-03</internalNodes>
          <leafValues>
            8.9181527495384216e-02 -8.0172258615493774e-01</leafValues></_>
        <_>
          <internalNodes>
            0 -1 74 -6.9044707342982292e-03</internalNodes>
          <leafValues>
            5.2746850252151489e-01 -1.9035410881042480e-01</leafValues></_>
        <_>
          <internalNodes>
            0 -1 131 4.8741820501163602e-04</internalNodes>
          <leafValues>
            -2.4287919700145721e-01 3.7521582841873169e-01</leafValues></_>
        <_>
          <internalNodes>
            0 -1 69 -6.8297656252980232e-04</internalNodes>
          <leafValues>
            -7.7438211441040039e-01 1.2432743608951569e-01</leafValues></_>
        <_>
          <internalNodes>
            0 -1 68 1.3326061889529228e-03</internalNodes>
          <leafValues>
            8.3551235496997833e-02 -8.7510216236114502e-01</leafValues></_>
        <_>
          <internalNodes>
            0 -1 43 -5.1640986930578947e-04</internalNodes>
          <leafValues>
            3.3059671521186829e-01 -2.8234866261482239e-01</leafValues></_>
        <_>
          <internalNodes>
            0 -1 122 -7.0588785456493497e-04</internalNodes>
          <leafValues>
            -7.2540318965911865e-01 1.3951514661312103e-01</leafValues></_>
        <_>
          <internalNodes>
            0 -1 79 2.5271007325500250e-03</internalNodes>
          <leafValues>
            -2.0628485083580017e-01 4.3233779072761536e-01</leafValues></_>
        <_>
          <internalNodes>
            0 -1 57 1.2726508080959320e-02</internalNodes>
          <leafValues>
            9.3188486993312836e-02 -8.9666438102722168e-01</leafValues></_>
        <_>
          <internalNodes>
            0 -1 59 -1.1763078160583973e-02</internalNodes>
          <leafValues>
            -8.1977450847625732e-01 7.8243196010589600e-02</leafValues></_></weakClassifiers></_>
    <!-- stage 11 -->
    <_>
      <maxWeakCount>16</maxWeakCount>
      <stageThreshold>-1.3874311447143555e+00</stageThreshold>
      <weakClassifiers>
        <_>
          <internalNodes>
            0 -1 95 -3.7798371631652117e-03</internalNodes>
          <leafValues>
            1.3196602463722229e-01 -5.7033723592758179e-01</leafValues></_>
        <_>
          <internalNodes>
            0 -1 154 6.0276808217167854e-03</internalNodes>
          <leafValues>
            -4.1544246673583984e-01 2.6136913895606995e-01</leafValues></_>
        <_>
          <internalNodes>
            0 -1 146 -2.0439834333956242e-03</internalNodes>
          <leafValues>
            3.2661807537078857e-01 -3.0797013640403748e-01</leafValues></_>
        <_>
          <internalNodes>
            0 -1 119 -1.1244121938943863e-02</internalNodes>
          <leafValues>
            -7.9771369695663452e-01 2.1359999477863312e-01</leafValues></_>
        <_>
          <internalNodes>
            0 -1 105 -1.4572302461601794e-04</internalNodes>
          <leafValues>
            -6.8386954069137573e-01 9.0093612670898438e-02</leafValues></_>
        <_>
          <internalNodes>
            0 -1 23 -5.4735606536269188e-03</internalNodes>
          <leafValues>
            2.6258155703544617e-01 -3.5143777728080750e-01</leafValues></_>
        <_>
          <internalNodes>
            0 -1 67 1.1313800314383116e-05</internalNodes>
          <leafValues>
            -6.0726124048233032e-01 1.3867491483688354e-01</leafValues></_>
        <_>
          <internalNodes>
            0 -1 153 -2.8669966850429773e-03</internalNodes>
          <leafValues>
            4.1858193278312683e-01 -2.3844675719738007e-01</leafValues></_>
        <_>
          <internalNodes>
            0 -1 103 1.4551864005625248e-03</internalNodes>
          <leafValues>
            1.0445597767829895e-01 -9.0796309709548950e-01</leafValues></_>
        <_>
          <internalNodes>
            0 -1 18 -4.2231483384966850e-03</internalNodes>
          <leafValues>
            4.7329768538475037e-01 -2.1545578539371490e-01</leafValues></_>
        <_>
          <internalNodes>
            0 -1 77 -2.6465389877557755e-02</internalNodes>
          <leafValues>
            -9.1452729701995850e-01 6.5567582845687866e-02</leafValues></_>
        <_>
          <internalNodes>
            0 -1 151 -1.7887810827232897e-04</internalNodes>
          <leafValues>
            2.9744613170623779e-01 -2.7222302556037903e-01</leafValues></_>
        <_>
          <internalNodes>
            0 -1 147 -1.5933815389871597e-02</internalNodes>
          <leafValues>
            -8.5237598419189453e-01 1.1950126290321350e-01</leafValues></_>
        <_>
          <internalNodes>
            0 -1 81 -1.7777159810066223e-02</internalNodes>
          <leafValues>
            -7.2520858049392700e-01 8.6178943514823914e-02</leafValues></_>
        <_>
          <internalNodes>
            0 -1 134 -1.3875480508431792e-03</internalNodes>
          <leafValues>
            4.6192395687103271e-01 -2.1511799097061157e-01</leafValues></_>
        <_>
          <internalNodes>
            0 -1 139 -2.1904219465795904e-05</internalNodes>
          <leafValues>
            2.4069482088088989e-01 -3.7882795929908752e-01</leafValues></_></weakClassifiers></_>
    <!-- stage 12 -->
    <_>
      <maxWeakCount>20</maxWeakCount>
      <stageThreshold>-1.6183208227157593e+00</stageThreshold>
      <weakClassifiers>
        <_>
          <internalNodes>
            0 -1 160 -6.9329822435975075e-03</internalNodes>
          <leafValues>
            2.5490197539329529e-01 -4.6984127163887024e-01</leafValues></_>
        <_>
          <internalNodes>
            0 -1 22 -3.9282059296965599e-03</internalNodes>
          <leafValues>
            3.3960729837417603e-01 -3.1743928790092468e-01</leafValues></_>
        <_>
          <internalNodes>
            0 -1 159 4.1865874081850052e-03</internalNodes>
          <leafValues>
            -2.3708342015743256e-01 4.2530667781829834e-01</leafValues></_>
        <_>
          <internalNodes>
            0 -1 115 -5.5132834240794182e-03</internalNodes>
          <leafValues>
            4.2534515261650085e-01 -1.9903114438056946e-01</leafValues></_>
        <_>
          <internalNodes>
            0 -1 36 1.7554370686411858e-02</internalNodes>
          <leafValues>
            9.8434261977672577e-02 -7.7886968851089478e-01</leafValues></_>
        <_>
          <internalNodes>
            0 -1 33 -1.9763004966080189e-03</internalNodes>
          <leafValues>
            3.0676794052124023e-01 -2.8758785128593445e-01</leafValues></_>
        <_>
          <internalNodes>
            0 -1 84 -2.2638605441898108e-03</internalNodes>
          <leafValues>
            -7.2393357753753662e-01 1.2179116159677505e-01</leafValues></_>
        <_>
          <internalNodes>
            0 -1 56 2.4731880985200405e-03</internalNodes>
          <leafValues>
            -2.1878558397293091e-01 4.0906918048858643e-01</leafValues></_>
        <_>
          <internalNodes>
            0 -1 102 6.1614235164597631e-04</internalNodes>
          <leafValues>
            1.1294667422771454e-01 -8.1154614686965942e-01</leafValues></_>
        <_>
          <internalNodes>
            0 -1 55 -4.7186762094497681e-03</internalNodes>
          <leafValues>
            5.0890952348709106e-01 -1.9438137114048004e-01</leafValues></_>
        <_>
          <internalNodes>
            0 -1 130 -1.1082012861152180e-05</internalNodes>
          <leafValues>
            2.5306633114814758e-01 -3.2206946611404419e-01</leafValues></_>
        <_>
          <internalNodes>
            0 -1 39 1.7308600945398211e-05</internalNodes>
          <leafValues>
            -3.4388163685798645e-01 2.5315797328948975e-01</leafValues></_>
        <_>
          <internalNodes>
            0 -1 41 -1.8117927014827728e-02</internalNodes>
          <leafValues>
            -6.7305457592010498e-01 1.1218700557947159e-01</leafValues></_>
        <_>
          <internalNodes>
            0 -1 136 -1.6293900553137064e-03</internalNodes>
          <leafValues>
            1.8577803671360016e-01 -4.1419294476509094e-01</leafValues></_>
        <_>
          <internalNodes>
            0 -1 46 -4.9661379307508469e-04</internalNodes>
          <leafValues>
            -6.5111780166625977e-01 1.0589044541120529e-01</leafValues></_>
        <_>
          <internalNodes>
            0 -1 75 -5.7652229443192482e-03</internalNodes>
          <leafValues>
            2.0041619241237640e-01 -3.4685283899307251e-01</leafValues></_>
        <_>
          <internalNodes>
            0 -1 166 1.4787177788093686e-03</internalNodes>
          <leafValues>
            -1.5038080513477325e-01 5.1281571388244629e-01</leafValues></_>
        <_>
          <internalNodes>
            0 -1 80 -7.2930788155645132e-04</internalNodes>
          <leafValues>
            5.1044607162475586e-01 -1.3764984905719757e-01</leafValues></_>
        <_>
          <internalNodes>
            0 -1 49 -9.3223998555913568e-04</internalNodes>
          <leafValues>
            -7.8064906597137451e-01 1.1515977233648300e-01</leafValues></_>
        <_>
          <internalNodes>
            0 -1 99 -5.0214100629091263e-03</internalNodes>
          <leafValues>
            4.7653290629386902e-01 -1.8721783161163330e-01</leafValues></_></weakClassifiers></_>
    <!-- stage 13 -->
    <_>
      <maxWeakCount>19</maxWeakCount>
      <stageThreshold>-1.5195155143737793e+00</stageThreshold>
      <weakClassifiers>
        <_>
          <internalNodes>
            0 -1 148 9.8153576254844666e-04</internalNodes>
          <leafValues>
            -4.7259566187858582e-01 2.2627736628055573e-01</leafValues></_>
        <_>
          <internalNodes>
            0 -1 71 -9.0558329247869551e-05</internalNodes>
          <leafValues>
            1.7029482126235962e-01 -5.1838719844818115e-01</leafValues></_>
        <_>
          <internalNodes>
            0 -1 7 -3.7434780597686768e-01</internalNodes>
          <leafValues>
            3.4001412987709045e-01 -3.0067503452301025e-01</leafValues></_>
        <_>
          <internalNodes>
            0 -1 27 -6.5773800015449524e-02</internalNodes>
          <leafValues>
            -7.2564756870269775e-01 1.8257997930049896e-01</leafValues></_>
        <_>
          <internalNodes>
            0 -1 92 -1.3789866119623184e-02</internalNodes>
          <leafValues>
            1.6234073042869568e-01 -4.6668168902397156e-01</leafValues></_>
        <_>
          <internalNodes>
            0 -1 52 -4.4930248986929655e-04</internalNodes>
          <leafValues>
            3.1467497348785400e-01 -2.6023766398429871e-01</leafValues></_>
        <_>
          <internalNodes>
            0 -1 35 -4.7837428748607635e-02</internalNodes>
          <leafValues>
            2.8556898236274719e-01 -2.8341397643089294e-01</leafValues></_>
        <_>
          <internalNodes>
            0 -1 82 -1.2993856798857450e-03</internalNodes>
          <leafValues>
            3.4643429517745972e-01 -2.2606886923313141e-01</leafValues></_>
        <_>
          <internalNodes>
            0 -1 86 1.0959075298160315e-03</internalNodes>
          <leafValues>
            1.0852370411157608e-01 -8.0072963237762451e-01</leafValues></_>
        <_>
          <internalNodes>
            0 -1 15 -2.7458127588033676e-03</internalNodes>
          <leafValues>
            3.5958823561668396e-01 -2.2486211359500885e-01</leafValues></_>
        <_>
          <internalNodes>
            0 -1 83 1.4491295441985130e-02</internalNodes>
          <leafValues>
            1.1457347869873047e-01 -8.3073383569717407e-01</leafValues></_>
        <_>
          <internalNodes>
            0 -1 133 -3.3076785621233284e-04</internalNodes>
          <leafValues>
            -7.4951052665710449e-01 7.7293202280998230e-02</leafValues></_>
        <_>
          <internalNodes>
            0 -1 13 4.4199135154485703e-03</internalNodes>
          <leafValues>
            -1.5611284971237183e-01 5.2214509248733521e-01</leafValues></_>
        <_>
          <internalNodes>
            0 -1 157 6.1095098499208689e-04</internalNodes>
          <leafValues>
            -1.9581003487110138e-01 3.7072986364364624e-01</leafValues></_>
        <_>
          <internalNodes>
            0 -1 65 -1.1678573209792376e-03</internalNodes>
          <leafValues>
            -6.0407298803329468e-01 1.1944003403186798e-01</leafValues></_>
        <_>
          <internalNodes>
            0 -1 132 -1.0635333637765143e-05</internalNodes>
          <leafValues>
            3.1028109788894653e-01 -2.6934736967086792e-01</leafValues></_>
        <_>
          <internalNodes>
            0 -1 125 2.2912514396011829e-03</internalNodes>
          <leafValues>
            1.0238499194383621e-01 -8.2865262031555176e-01</leafValues></_>
        <_>
          <internalNodes>
            0 -1 98 2.1281761582940817e-03</internalNodes>
          <leafValues>
            -2.0629364252090454e-01 3.9388892054557800e-01</leafValues></_>
        <_>
          <internalNodes>
            0 -1 96 -3.8084732368588448e-03</internalNodes>
          <leafValues>
            4.2570817470550537e-01 -2.0616418123245239e-01</leafValues></_></weakClassifiers></_></stages>
  <features>
    <_>
      <rects>
        <_>
          0 0 12 4 -1.</_>
        <_>
          0 0 6 2 2.</_>
        <_>
          6 2 6 2 2.</_></rects>
      <tilted>0</tilted></_>
    <_>
      <rects>
        <_>
          0 1 18 29 -1.</_>
        <_>
          6 1 6 29 3.</_></rects>
      <tilted>0</tilted></_>
    <_>
      <rects>
        <_>
          0 7 6 23 -1.</_>
        <_>
          3 7 3 23 2.</_></rects>
      <tilted>0</tilted></_>
    <_>
      <rects>
        <_>
          0 13 3 15 -1.</_>
        <_>
          1 13 1 15 3.</_></rects>
      <tilted>0</tilted></_>
    <_>
      <rects>
        <_>
          1 0 6 12 -1.</_>
        <_>
          1 0 3 6 2.</_>
        <_>
          4 6 3 6 2.</_></rects>
      <tilted>0</tilted></_>
    <_>
      <rects>
        <_>
          1 2 18 8 -1.</_>
        <_>
          7 2 6 8 3.</_></rects>
      <tilted>0</tilted></_>
    <_>
      <rects>
        <_>
          1 2 18 9 -1.</_>
        <_>
          7 2 6 9 3.</_></rects>
      <tilted>0</tilted></_>
    <_>
      <rects>
        <_>
          1 2 18 28 -1.</_>
        <_>
          7 2 6 28 3.</_></rects>
      <tilted>0</tilted></_>
    <_>
      <rects>
        <_>
          1 3 18 3 -1.</_>
        <_>
          7 3 6 3 3.</_></rects>
      <tilted>0</tilted></_>
    <_>
      <rects>
        <_>
          1 5 12 22 -1.</_>
        <_>
          5 5 4 22 3.</_></rects>
      <tilted>0</tilted></_>
    <_>
      <rects>
        <_>
          1 13 3 5 -1.</_>
        <_>
          2 13 1 5 3.</_></rects>
      <tilted>0</tilted></_>
    <_>
      <rects>
        <_>
          1 13 3 6 -1.</_>
        <_>
          2 13 1 6 3.</_></rects>
      <tilted>0</tilted></_>
    <_>
      <rects>
        <_>
          1 15 3 4 -1.</_>
        <_>
          2 15 1 4 3.</_></rects>
      <tilted>0</tilted></_>
    <_>
      <rects>
        <_>
          1 16 3 5 -1.</_>
        <_>
          2 16 1 5 3.</_></rects>
      <tilted>0</tilted></_>
    <_>
      <rects>
        <_>
          1 16 3 10 -1.</_>
        <_>
          2 16 1 10 3.</_></rects>
      <tilted>0</tilted></_>
    <_>
      <rects>
        <_>
          1 18 3 4 -1.</_>
        <_>
          2 18 1 4 3.</_></rects>
      <tilted>0</tilted></_>
    <_>
      <rects>
        <_>
          1 19 3 5 -1.</_>
        <_>
          2 19 1 5 3.</_></rects>
      <tilted>0</tilted></_>
    <_>
      <rects>
        <_>
          2 3 18 27 -1.</_>
        <_>
          8 3 6 27 3.</_></rects>
      <tilted>0</tilted></_>
    <_>
      <rects>
        <_>
          2 10 3 5 -1.</_>
        <_>
          3 10 1 5 3.</_></rects>
      <tilted>0</tilted></_>
    <_>
      <rects>
        <_>
          2 18 2 11 -1.</_>
        <_>
          3 18 1 11 2.</_></rects>
      <tilted>0</tilted></_>
    <_>
      <rects>
        <_>
          2 18 2 12 -1.</_>
        <_>
          3 18 1 12 2.</_></rects>
      <tilted>0</tilted></_>
    <_>
      <rects>
        <_>
          3 2 2 26 -1.</_>
        <_>
          4 2 1 26 2.</_></rects>
      <tilted>0</tilted></_>
    <_>
      <rects>
        <_>
          3 4 4 4 -1.</_>
        <_>
          3 6 4 2 2.</_></rects>
      <tilted>0</tilted></_>
    <_>
      <rects>
        <_>
          3 8 6 10 -1.</_>
        <_>
          5 8 2 10 3.</_></rects>
      <tilted>0</tilted></_>
    <_>
      <rects>
        <_>
          3 9 3 6 -1.</_>
        <_>
          4 9 1 6 3.</_></rects>
      <tilted>0</tilted></_>
    <_>
      <rects>
        <_>
          3 10 3 5 -1.</_>
        <_>
          4 10 1 5 3.</_></rects>
      <tilted>0</tilted></_>
    <_>
      <rects>
        <_>
          3 11 12 16 -1.</_>
        <_>
          9 11 6 16 2.</_></rects>
      <tilted>0</tilted></_>
    <_>
      <rects>
        <_>
          3 13 15 11 -1.</_>
        <_>
          8 13 5 11 3.</_></rects>
      <tilted>0</tilted></_>
    <_>
      <rects>
        <_>
          3 16 15 8 -1.</_>
        <_>
          3 20 15 4 2.</_></rects>
      <tilted>0</tilted></_>
    <_>
      <rects>
        <_>
          4 0 13 6 -1.</_>
        <_>
          4 3 13 3 2.</_></rects>
      <tilted>0</tilted></_>
    <_>
      <rects>
        <_>
          4 3 6 6 -1.</_>
        <_>
          4 3 3 3 2.</_>
        <_>
          7 6 3 3 2.</_></rects>
      <tilted>0</tilted></_>
    <_>
      <rects>
        <_>
          4 13 12 10 -1.</_>
        <_>
          8 13 4 10 3.</_></rects>
      <tilted>0</tilted></_>
    <_>
      <rects>
        <_>
          4 14 14 12 -1.</_>
        <_>
          4 20 14 6 2.</_></rects>
      <tilted>0</tilted></_>
    <_>
      <rects>
        <_>
          4 15 3 15 -1.</_>
        <_>
          5 15 1 15 3.</_></rects>
      <tilted>0</tilted></_>
    <_>
      <rects>
        <_>
          4 18 5 4 -1.</_>
        <_>
          4 20 5 2 2.</_></rects>
      <tilted>0</tilted></_>
    <_>
      <rects>
        <_>
          5 0 11 8 -1.</_>
        <_>
          5 4 11 4 2.</_></rects>
      <tilted>0</tilted></_>
    <_>
      <rects>
        <_>
          5 8 6 12 -1.</_>
        <_>
          8 8 3 12 2.</_></rects>
      <tilted>0</tilted></_>
    <_>
      <rects>
        <_>
          5 9 3 5 -1.</_>
        <_>
          6 9 1 5 3.</_></rects>
      <tilted>0</tilted></_>
    <_>
      <rects>
        <_>
          5 9 3 15 -1.</_>
        <_>
          5 14 3 5 3.</_></rects>
      <tilted>0</tilted></_>
    <_>
      <rects>
        <_>
          5 9 4 4 -1.</_>
        <_>
          5 11 4 2 2.</_></rects>
      <tilted>0</tilted></_>
    <_>
      <rects>
        <_>
          5 10 3 4 -1.</_>
        <_>
          6 10 1 4 3.</_></rects>
      <tilted>0</tilted></_>
    <_>
      <rects>
        <_>
          5 10 10 9 -1.</_>
        <_>
          10 10 5 9 2.</_></rects>
      <tilted>0</tilted></_>
    <_>
      <rects>
        <_>
          5 10 10 10 -1.</_>
        <_>
          10 10 5 10 2.</_></rects>
      <tilted>0</tilted></_>
    <_>
      <rects>
        <_>
          5 13 3 3 -1.</_>
        <_>
          5 14 3 1 3.</_></rects>
      <tilted>0</tilted></_>
    <_>
      <rects>
        <_>
          5 13 6 2 -1.</_>
        <_>
          5 13 3 1 2.</_>
        <_>
          8 14 3 1 2.</_></rects>
      <tilted>0</tilted></_>
    <_>
      <rects>
        <_>
          5 14 6 7 -1.</_>
        <_>
          8 14 3 7 2.</_></rects>
      <tilted>0</tilted></_>
    <_>
      <rects>
        <_>
          5 15 8 6 -1.</_>
        <_>
          5 18 8 3 2.</_></rects>
      <tilted>0</tilted></_>
    <_>
      <rects>
        <_>
          5 17 5 4 -1.</_>
        <_>
          5 19 5 2 2.</_></rects>
      <tilted>0</tilted></_>
    <_>
      <rects>
        <_>
          5 18 4 3 -1.</_>
        <_>
          7 18 2 3 2.</_></rects>
      <tilted>0</tilted></_>
    <_>
      <rects>
        <_>
          5 21 6 3 -1.</_>
        <_>
          5 22 6 1 3.</_></rects>
      <tilted>0</tilted></_>
    <_>
      <rects>
        <_>
          5 21 10 3 -1.</_>
        <_>
          5 22 10 1 3.</_></rects>
      <tilted>0</tilted></_>
    <_>
      <rects>
        <_>
          5 26 5 4 -1.</_>
        <_>
          5 28 5 2 2.</_></rects>
      <tilted>0</tilted></_>
    <_>
      <rects>
        <_>
          5 27 6 2 -1.</_>
        <_>
          5 27 3 1 2.</_>
        <_>
          8 28 3 1 2.</_></rects>
      <tilted>0</tilted></_>
    <_>
      <rects>
        <_>
          6 0 8 4 -1.</_>
        <_>
          6 2 8 2 2.</_></rects>
      <tilted>0</tilted></_>
    <_>
      <rects>
        <_>
          6 0 8 6 -1.</_>
        <_>
          6 3 8 3 2.</_></rects>
      <tilted>0</tilted></_>
    <_>
      <rects>
        <_>
          6 6 3 8 -1.</_>
        <_>
          7 6 1 8 3.</_></rects>
      <tilted>0</tilted></_>
    <_>
      <rects>
        <_>
          6 8 3 8 -1.</_>
        <_>
          7 8 1 8 3.</_></rects>
      <tilted>0</tilted></_>
    <_>
      <rects>
        <_>
          6 8 3 8 -1.</_>
        <_>
          6 12 3 4 2.</_></rects>
      <tilted>0</tilted></_>
    <_>
      <rects>
        <_>
          6 9 6 11 -1.</_>
        <_>
          9 9 3 11 2.</_></rects>
      <tilted>0</tilted></_>
    <_>
      <rects>
        <_>
          6 10 3 12 -1.</_>
        <_>
          6 14 3 4 3.</_></rects>
      <tilted>0</tilted></_>
    <_>
      <rects>
        <_>
          6 14 2 9 -1.</_>
        <_>
          6 17 2 3 3.</_></rects>
      <tilted>0</tilted></_>
    <_>
      <rects>
        <_>
          6 15 8 1 -1.</_>
        <_>
          10 15 4 1 2.</_></rects>
      <tilted>0</tilted></_>
    <_>
      <rects>
        <_>
          6 15 8 2 -1.</_>
        <_>
          10 15 4 2 2.</_></rects>
      <tilted>0</tilted></_>
    <_>
      <rects>
        <_>
          6 16 4 4 -1.</_>
        <_>
          8 16 2 4 2.</_></rects>
      <tilted>0</tilted></_>
    <_>
      <rects>
        <_>
          6 16 2 8 -1.</_>
        <_>
          6 20 2 4 2.</_></rects>
      <tilted>0</tilted></_>
    <_>
      <rects>
        <_>
          6 17 9 1 -1.</_>
        <_>
          9 17 3 1 3.</_></rects>
      <tilted>0</tilted></_>
    <_>
      <rects>
        <_>
          6 17 8 1 -1.</_>
        <_>
          10 17 4 1 2.</_></rects>
      <tilted>0</tilted></_>
    <_>
      <rects>
        <_>
          6 18 4 2 -1.</_>
        <_>
          6 19 4 1 2.</_></rects>
      <tilted>0</tilted></_>
    <_>
      <rects>
        <_>
          6 21 5 3 -1.</_>
        <_>
          6 22 5 1 3.</_></rects>
      <tilted>0</tilted></_>
    <_>
      <rects>
        <_>
          6 21 6 3 -1.</_>
        <_>
          6 22 6 1 3.</_></rects>
      <tilted>0</tilted></_>
    <_>
      <rects>
        <_>
          6 26 7 2 -1.</_>
        <_>
          6 27 7 1 2.</_></rects>
      <tilted>0</tilted></_>
    <_>
      <rects>
        <_>
          6 27 2 2 -1.</_>
        <_>
          6 28 2 1 2.</_></rects>
      <tilted>0</tilted></_>
    <_>
      <rects>
        <_>
          6 28 3 2 -1.</_>
        <_>
          6 29 3 1 2.</_></rects>
      <tilted>0</tilted></_>
    <_>
      <rects>
        <_>
          7 0 7 4 -1.</_>
        <_>
          7 2 7 2 2.</_></rects>
      <tilted>0</tilted></_>
    <_>
      <rects>
        <_>
          7 3 3 12 -1.</_>
        <_>
          8 3 1 12 3.</_></rects>
      <tilted>0</tilted></_>
    <_>
      <rects>
        <_>
          7 4 9 6 -1.</_>
        <_>
          10 4 3 6 3.</_></rects>
      <tilted>0</tilted></_>
    <_>
      <rects>
        <_>
          7 6 3 6 -1.</_>
        <_>
          8 6 1 6 3.</_></rects>
      <tilted>0</tilted></_>
    <_>
      <rects>
        <_>
          7 6 3 15 -1.</_>
        <_>
          7 11 3 5 3.</_></rects>
      <tilted>0</tilted></_>
    <_>
      <rects>
        <_>
          7 8 3 5 -1.</_>
        <_>
          8 8 1 5 3.</_></rects>
      <tilted>0</tilted></_>
    <_>
      <rects>
        <_>
          7 9 3 5 -1.</_>
        <_>
          8 9 1 5 3.</_></rects>
      <tilted>0</tilted></_>
    <_>
      <rects>
        <_>
          7 12 3 1 -1.</_>
        <_>
          8 12 1 1 3.</_></rects>
      <tilted>0</tilted></_>
    <_>
      <rects>
        <_>
          7 12 9 8 -1.</_>
        <_>
          10 12 3 8 3.</_></rects>
      <tilted>0</tilted></_>
    <_>
      <rects>
        <_>
          7 12 5 3 -1.</_>
        <_>
          7 13 5 1 3.</_></rects>
      <tilted>0</tilted></_>
    <_>
      <rects>
        <_>
          7 13 9 5 -1.</_>
        <_>
          10 13 3 5 3.</_></rects>
      <tilted>0</tilted></_>
    <_>
      <rects>
        <_>
          7 14 4 3 -1.</_>
        <_>
          9 14 2 3 2.</_></rects>
      <tilted>0</tilted></_>
    <_>
      <rects>
        <_>
          7 14 4 4 -1.</_>
        <_>
          9 14 2 4 2.</_></rects>
      <tilted>0</tilted></_>
    <_>
      <rects>
        <_>
          7 16 6 2 -1.</_>
        <_>
          7 16 3 1 2.</_>
        <_>
          10 17 3 1 2.</_></rects>
      <tilted>0</tilted></_>
    <_>
      <rects>
        <_>
          7 16 4 3 -1.</_>
        <_>
          7 17 4 1 3.</_></rects>
      <tilted>0</tilted></_>
    <_>
      <rects>
        <_>
          7 16 8 3 -1.</_>
        <_>
          11 16 4 3 2.</_></rects>
      <tilted>0</tilted></_>
    <_>
      <rects>
        <_>
          7 18 2 2 -1.</_>
        <_>
          7 19 2 1 2.</_></rects>
      <tilted>0</tilted></_>
    <_>
      <rects>
        <_>
          7 20 5 3 -1.</_>
        <_>
          7 21 5 1 3.</_></rects>
      <tilted>0</tilted></_>
    <_>
      <rects>
        <_>
          7 22 7 3 -1.</_>
        <_>
          7 23 7 1 3.</_></rects>
      <tilted>0</tilted></_>
    <_>
      <rects>
        <_>
          7 23 12 7 -1.</_>
        <_>
          11 23 4 7 3.</_></rects>
      <tilted>0</tilted></_>
    <_>
      <rects>
        <_>
          7 23 7 3 -1.</_>
        <_>
          7 24 7 1 3.</_></rects>
      <tilted>0</tilted></_>
    <_>
      <rects>
        <_>
          7 27 1 2 -1.</_>
        <_>
          7 28 1 1 2.</_></rects>
      <tilted>0</tilted></_>
    <_>
      <rects>
        <_>
          8 0 4 6 -1.</_>
        <_>
          8 2 4 2 3.</_></rects>
      <tilted>0</tilted></_>
    <_>
      <rects>
        <_>
          8 4 3 9 -1.</_>
        <_>
          9 4 1 9 3.</_></rects>
      <tilted>0</tilted></_>
    <_>
      <rects>
        <_>
          8 4 3 8 -1.</_>
        <_>
          8 8 3 4 2.</_></rects>
      <tilted>0</tilted></_>
    <_>
      <rects>
        <_>
          8 5 3 5 -1.</_>
        <_>
          9 5 1 5 3.</_></rects>
      <tilted>0</tilted></_>
    <_>
      <rects>
        <_>
          8 6 3 7 -1.</_>
        <_>
          9 6 1 7 3.</_></rects>
      <tilted>0</tilted></_>
    <_>
      <rects>
        <_>
          8 9 12 17 -1.</_>
        <_>
          12 9 4 17 3.</_></rects>
      <tilted>0</tilted></_>
    <_>
      <rects>
        <_>
          8 12 2 3 -1.</_>
        <_>
          8 13 2 1 3.</_></rects>
      <tilted>0</tilted></_>
    <_>
      <rects>
        <_>
          8 15 2 3 -1.</_>
        <_>
          9 15 1 3 2.</_></rects>
      <tilted>0</tilted></_>
    <_>
      <rects>
        <_>
          8 17 6 1 -1.</_>
        <_>
          11 17 3 1 2.</_></rects>
      <tilted>0</tilted></_>
    <_>
      <rects>
        <_>
          8 17 12 12 -1.</_>
        <_>
          12 17 4 12 3.</_></rects>
      <tilted>0</tilted></_>
    <_>
      <rects>
        <_>
          8 24 3 3 -1.</_>
        <_>
          8 25 3 1 3.</_></rects>
      <tilted>0</tilted></_>
    <_>
      <rects>
        <_>
          8 24 4 3 -1.</_>
        <_>
          8 25 4 1 3.</_></rects>
      <tilted>0</tilted></_>
    <_>
      <rects>
        <_>
          8 25 1 3 -1.</_>
        <_>
          8 26 1 1 3.</_></rects>
      <tilted>0</tilted></_>
    <_>
      <rects>
        <_>
          8 25 5 3 -1.</_>
        <_>
          8 26 5 1 3.</_></rects>
      <tilted>0</tilted></_>
    <_>
      <rects>
        <_>
          8 26 2 2 -1.</_>
        <_>
          8 27 2 1 2.</_></rects>
      <tilted>0</tilted></_>
    <_>
      <rects>
        <_>
          8 27 1 2 -1.</_>
        <_>
          8 28 1 1 2.</_></rects>
      <tilted>0</tilted></_>
    <_>
      <rects>
        <_>
          8 28 1 2 -1.</_>
        <_>
          8 29 1 1 2.</_></rects>
      <tilted>0</tilted></_>
    <_>
      <rects>
        <_>
          8 28 8 2 -1.</_>
        <_>
          8 28 4 1 2.</_>
        <_>
          12 29 4 1 2.</_></rects>
      <tilted>0</tilted></_>
    <_>
      <rects>
        <_>
          9 2 3 11 -1.</_>
        <_>
          10 2 1 11 3.</_></rects>
      <tilted>0</tilted></_>
    <_>
      <rects>
        <_>
          9 2 10 11 -1.</_>
        <_>
          14 2 5 11 2.</_></rects>
      <tilted>0</tilted></_>
    <_>
      <rects>
        <_>
          9 3 3 17 -1.</_>
        <_>
          10 3 1 17 3.</_></rects>
      <tilted>0</tilted></_>
    <_>
      <rects>
        <_>
          9 5 3 12 -1.</_>
        <_>
          9 9 3 4 3.</_></rects>
      <tilted>0</tilted></_>
    <_>
      <rects>
        <_>
          9 7 3 8 -1.</_>
        <_>
          10 7 1 8 3.</_></rects>
      <tilted>0</tilted></_>
    <_>
      <rects>
        <_>
          9 8 3 5 -1.</_>
        <_>
          10 8 1 5 3.</_></rects>
      <tilted>0</tilted></_>
    <_>
      <rects>
        <_>
          9 11 6 8 -1.</_>
        <_>
          12 11 3 8 2.</_></rects>
      <tilted>0</tilted></_>
    <_>
      <rects>
        <_>
          9 12 3 1 -1.</_>
        <_>
          10 12 1 1 3.</_></rects>
      <tilted>0</tilted></_>
    <_>
      <rects>
        <_>
          9 16 6 3 -1.</_>
        <_>
          12 16 3 3 2.</_></rects>
      <tilted>0</tilted></_>
    <_>
      <rects>
        <_>
          9 17 3 3 -1.</_>
        <_>
          10 17 1 3 3.</_></rects>
      <tilted>0</tilted></_>
    <_>
      <rects>
        <_>
          9 22 4 3 -1.</_>
        <_>
          9 23 4 1 3.</_></rects>
      <tilted>0</tilted></_>
    <_>
      <rects>
        <_>
          9 24 4 3 -1.</_>
        <_>
          9 25 4 1 3.</_></rects>
      <tilted>0</tilted></_>
    <_>
      <rects>
        <_>
          9 24 5 3 -1.</_>
        <_>
          9 25 5 1 3.</_></rects>
      <tilted>0</tilted></_>
    <_>
      <rects>
        <_>
          9 26 8 4 -1.</_>
        <_>
          9 26 4 2 2.</_>
        <_>
          13 28 4 2 2.</_></rects>
      <tilted>0</tilted></_>
    <_>
      <rects>
        <_>
          9 28 2 1 -1.</_>
        <_>
          10 28 1 1 2.</_></rects>
      <tilted>0</tilted></_>
    <_>
      <rects>
        <_>
          10 7 1 16 -1.</_>
        <_>
          10 15 1 8 2.</_></rects>
      <tilted>0</tilted></_>
    <_>
      <rects>
        <_>
          10 10 1 6 -1.</_>
        <_>
          10 12 1 2 3.</_></rects>
      <tilted>0</tilted></_>
    <_>
      <rects>
        <_>
          10 11 1 2 -1.</_>
        <_>
          10 12 1 1 2.</_></rects>
      <tilted>0</tilted></_>
    <_>
      <rects>
        <_>
          10 11 2 2 -1.</_>
        <_>
          11 11 1 2 2.</_></rects>
      <tilted>0</tilted></_>
    <_>
      <rects>
        <_>
          10 15 1 2 -1.</_>
        <_>
          10 16 1 1 2.</_></rects>
      <tilted>0</tilted></_>
    <_>
      <rects>
        <_>
          10 24 3 3 -1.</_>
        <_>
          10 25 3 1 3.</_></rects>
      <tilted>0</tilted></_>
    <_>
      <rects>
        <_>
          11 10 3 3 -1.</_>
        <_>
          12 10 1 3 3.</_></rects>
      <tilted>0</tilted></_>
    <_>
      <rects>
        <_>
          11 10 3 4 -1.</_>
        <_>
          12 10 1 4 3.</_></rects>
      <tilted>0</tilted></_>
    <_>
      <rects>
        <_>
          11 15 9 2 -1.</_>
        <_>
          14 15 3 2 3.</_></rects>
      <tilted>0</tilted></_>
    <_>
      <rects>
        <_>
          11 16 4 12 -1.</_>
        <_>
          11 22 4 6 2.</_></rects>
      <tilted>0</tilted></_>
    <_>
      <rects>
        <_>
          11 20 2 6 -1.</_>
        <_>
          11 22 2 2 3.</_></rects>
      <tilted>0</tilted></_>
    <_>
      <rects>
        <_>
          11 24 1 2 -1.</_>
        <_>
          11 25 1 1 2.</_></rects>
      <tilted>0</tilted></_>
    <_>
      <rects>
        <_>
          11 24 1 3 -1.</_>
        <_>
          11 25 1 1 3.</_></rects>
      <tilted>0</tilted></_>
    <_>
      <rects>
        <_>
          11 25 2 2 -1.</_>
        <_>
          11 26 2 1 2.</_></rects>
      <tilted>0</tilted></_>
    <_>
      <rects>
        <_>
          12 3 6 27 -1.</_>
        <_>
          15 3 3 27 2.</_></rects>
      <tilted>0</tilted></_>
    <_>
      <rects>
        <_>
          12 3 8 27 -1.</_>
        <_>
          16 3 4 27 2.</_></rects>
      <tilted>0</tilted></_>
    <_>
      <rects>
        <_>
          12 6 3 10 -1.</_>
        <_>
          13 6 1 10 3.</_></rects>
      <tilted>0</tilted></_>
    <_>
      <rects>
        <_>
          12 9 3 6 -1.</_>
        <_>
          13 9 1 6 3.</_></rects>
      <tilted>0</tilted></_>
    <_>
      <rects>
        <_>
          12 10 3 6 -1.</_>
        <_>
          13 10 1 6 3.</_></rects>
      <tilted>0</tilted></_>
    <_>
      <rects>
        <_>
          12 10 2 20 -1.</_>
        <_>
          12 20 2 10 2.</_></rects>
      <tilted>0</tilted></_>
    <_>
      <rects>
        <_>
          12 12 2 6 -1.</_>
        <_>
          12 12 1 3 2.</_>
        <_>
          13 15 1 3 2.</_></rects>
      <tilted>0</tilted></_>
    <_>
      <rects>
        <_>
          12 25 1 2 -1.</_>
        <_>
          12 26 1 1 2.</_></rects>
      <tilted>0</tilted></_>
    <_>
      <rects>
        <_>
          12 26 1 2 -1.</_>
        <_>
          12 27 1 1 2.</_></rects>
      <tilted>0</tilted></_>
    <_>
      <rects>
        <_>
          12 27 1 2 -1.</_>
        <_>
          12 28 1 1 2.</_></rects>
      <tilted>0</tilted></_>
    <_>
      <rects>
        <_>
          13 4 4 18 -1.</_>
        <_>
          13 4 2 9 2.</_>
        <_>
          15 13 2 9 2.</_></rects>
      <tilted>0</tilted></_>
    <_>
      <rects>
        <_>
          13 9 3 5 -1.</_>
        <_>
          14 9 1 5 3.</_></rects>
      <tilted>0</tilted></_>
    <_>
      <rects>
        <_>
          13 15 4 14 -1.</_>
        <_>
          13 15 2 7 2.</_>
        <_>
          15 22 2 7 2.</_></rects>
      <tilted>0</tilted></_>
    <_>
      <rects>
        <_>
          13 16 3 3 -1.</_>
        <_>
          14 16 1 3 3.</_></rects>
      <tilted>0</tilted></_>
    <_>
      <rects>
        <_>
          13 16 6 7 -1.</_>
        <_>
          15 16 2 7 3.</_></rects>
      <tilted>0</tilted></_>
    <_>
      <rects>
        <_>
          13 17 3 1 -1.</_>
        <_>
          14 17 1 1 3.</_></rects>
      <tilted>0</tilted></_>
    <_>
      <rects>
        <_>
          13 17 4 12 -1.</_>
        <_>
          13 17 2 6 2.</_>
        <_>
          15 23 2 6 2.</_></rects>
      <tilted>0</tilted></_>
    <_>
      <rects>
        <_>
          13 26 3 4 -1.</_>
        <_>
          13 28 3 2 2.</_></rects>
      <tilted>0</tilted></_>
    <_>
      <rects>
        <_>
          14 8 4 8 -1.</_>
        <_>
          14 8 2 4 2.</_>
        <_>
          16 12 2 4 2.</_></rects>
      <tilted>0</tilted></_>
    <_>
      <rects>
        <_>
          14 14 6 12 -1.</_>
        <_>
          17 14 3 12 2.</_></rects>
      <tilted>0</tilted></_>
    <_>
      <rects>
        <_>
          14 15 6 2 -1.</_>
        <_>
          16 15 2 2 3.</_></rects>
      <tilted>0</tilted></_>
    <_>
      <rects>
        <_>
          14 24 3 6 -1.</_>
        <_>
          14 27 3 3 2.</_></rects>
      <tilted>0</tilted></_>
    <_>
      <rects>
        <_>
          16 6 1 24 -1.</_>
        <_>
          16 14 1 8 3.</_></rects>
      <tilted>0</tilted></_>
    <_>
      <rects>
        <_>
          16 19 2 3 -1.</_>
        <_>
          17 19 1 3 2.</_></rects>
      <tilted>0</tilted></_>
    <_>
      <rects>
        <_>
          16 22 2 4 -1.</_>
        <_>
          16 22 1 2 2.</_>
        <_>
          17 24 1 2 2.</_></rects>
      <tilted>0</tilted></_></features></cascade>
</opencv_storage>
